{"learner":{"attributes":{"scikit_learn":"{\"n_estimators\": 100, \"objective\": \"binary:logistic\", \"max_depth\": null, \"learning_rate\": null, \"verbosity\": null, \"booster\": null, \"tree_method\": null, \"gamma\": null, \"min_child_weight\": null, \"max_delta_step\": null, \"subsample\": null, \"colsample_bytree\": null, \"colsample_bylevel\": null, \"colsample_bynode\": null, \"reg_alpha\": null, \"reg_lambda\": null, \"scale_pos_weight\": 0.08816919361331008, \"base_score\": null, \"missing\": NaN, \"num_parallel_tree\": null, \"kwargs\": {}, \"random_state\": null, \"n_jobs\": null, \"monotone_constraints\": null, \"interaction_constraints\": null, \"importance_type\": \"gain\", \"gpu_id\": null, \"validate_parameters\": null, \"classes_\": [0.0, 1.0], \"n_classes_\": 2, \"_le\": {\"classes_\": [0.0, 1.0]}, \"_features_count\": 18, \"n_features_in_\": 18, \"type\": \"XGBClassifier\"}"},"gradient_booster":{"model":{"gbtree_model_param":{"num_trees":"100","size_leaf_vector":"0"},"tree_info":[0,0,0,0,0,0,0,0,0,0,0,0,0,0,0,0,0,0,0,0,0,0,0,0,0,0,0,0,0,0,0,0,0,0,0,0,0,0,0,0,0,0,0,0,0,0,0,0,0,0,0,0,0,0,0,0,0,0,0,0,0,0,0,0,0,0,0,0,0,0,0,0,0,0,0,0,0,0,0,0,0,0,0,0,0,0,0,0,0,0,0,0,0,0,0,0,0,0,0,0],"trees":[{"base_weights":[-6.6616E-1,-1.8508992E0,-5.363578E-2,-3.389317E-1,-1.9451802E0,8.377219E-1,-4.4391665E-1,-1.3382553E0,8.312051E-1,6.070705E-1,-1.9564489E0,1.1751872E0,-1.4139952E-1,1.920294E0,-5.809451E-1,-1.5353383E0,-2.8342897E-1,1.2304856E0,-3.0556777E-1,-4.8199612E-1,-1.959676E0,6.2072533E-1,1.7171161E0,5.7979274E-1,-8.0133986E-1,-9.901053E-1,2.5730538E-1,4.9786482E-2,-4.8199612E-1,-4.8199612E-1,1.5576929E0,-6.756267E-1,2.0418091E-1,-6.519666E-2,1.3416629E0,4.519803E-1,1.7983335E0,1.0647757E0,-3.8089624E-1,-1.1357893E0,1.4913046E0,1.706709E0,-1.05156E0,6.791379E-1,-9.333153E-1,8.265079E-1,-7.770139E-1,1.430245E0,-5.502866E-1,-9.425302E-1,1.4674176E0,3.2052168E-1,1.8236327E0,-4.8199612E-1,1.1922299E0,1.0584501E0,-7.1067464E-1,-1.9420058E-1,-1.5887457E0,-4.3988615E-1,-1.2892085E0,9.203983E-1,-7.8135705E-1,-5.1827885E-2,-1.2611825E0],"default_left":[true,true,true,true,true,true,true,true,true,false,true,true,true,false,true,false,true,true,true,false,false,true,true,true,true,true,true,false,false,false,false,false,false,true,true,true,true,true,true,true,false,false,true,true,true,false,false,false,false,false,false,false,false,false,false,false,false,false,false,false,false,false,false,false,false],"id":0,"leaf_child_counts":[0,0,0,0,0,0,0,0,0,0,0,0,0,0,0,0,0,0,0,0,0,0,0,0,0,0,0,0,0,0,0,0,0,0,0,0,0,0,0,0,0,0,0,0,0,0,0,0,0,0,0,0,0,0,0,0,0,0,0,0,0,0,0,0,0],"left_children":[1,3,5,7,9,11,13,15,17,-1,19,21,23,-1,25,-1,27,29,31,-1,-1,33,35,37,39,41,43,-1,-1,-1,-1,-1,-1,45,47,49,51,53,55,57,-1,-1,59,61,63,-1,-1,-1,-1,-1,-1,-1,-1,-1,-1,-1,-1,-1,-1,-1,-1,-1,-1,-1,-1],"loss_changes":[7.160122E2,4.72782E1,2.2702513E2,2.560984E1,1.0285645E1,6.583626E1,1.4812393E2,1.9935474E0,5.036091E0,0E0,5.550537E-1,4.3378693E1,2.5135284E1,0E0,1.4762848E2,0E0,2.2683199E-1,5.119817E0,7.924944E-1,0E0,0E0,3.7015728E1,6.8149567E0,1.2215845E1,2.2769999E1,4.968347E1,7.1818954E1,0E0,0E0,0E0,0E0,0E0,0E0,2.5537264E1,6.8967285E0,9.61576E0,2.010971E0,3.9474049E0,5.1382256E0,1.016423E1,0E0,0E0,4.059021E1,3.779948E1,1.077261E1,0E0,0E0,0E0,0E0,0E0,0E0,0E0,0E0,0E0,0E0,0E0,0E0,0E0,0E0,0E0,0E0,0E0,0E0,0E0,0E0],"parents":[2147483647,0,0,1,1,2,2,3,3,4,4,5,5,6,6,7,7,8,8,10,10,11,11,12,12,14,14,16,16,17,17,18,18,21,21,22,22,23,23,24,24,25,25,26,26,33,33,34,34,35,35,36,36,37,37,38,38,39,39,42,42,43,43,44,44],"right_children":[2,4,6,8,10,12,14,16,18,-1,20,22,24,-1,26,-1,28,30,32,-1,-1,34,36,38,40,42,44,-1,-1,-1,-1,-1,-1,46,48,50,52,54,56,58,-1,-1,60,62,64,-1,-1,-1,-1,-1,-1,-1,-1,-1,-1,-1,-1,-1,-1,-1,-1,-1,-1,-1,-1],"split_conditions":[1.0224832E-2,3.1585707E4,2.205647E3,1.88041E1,5.18975E0,1.575796E0,5.0387497E0,1.20592E1,3.3432074E4,1.8212116E-1,6.85E-3,2.8571727E0,7.268116E0,5.7608825E-1,2.72011E1,-4.606015E-1,2.6076724E3,8.048535E3,1.8687979E4,-1.4459884E-1,-5.8790284E-1,2.280173E0,1.2127817E-2,2.6858457E3,3.9597845E-1,1.1999999E-3,4.071935E4,1.4935945E-2,-1.4459884E-1,-1.4459884E-1,4.673079E-1,-2.0268802E-1,6.1254274E-2,2.3123643E3,6.2411143E3,4.116518E0,5.547963E-4,2.1310959E-2,5.30145E0,3.0523443E-1,4.4739142E-1,5.120127E-1,2.9117385E4,4.956133E4,4.394576E-1,2.4795239E-1,-2.3310418E-1,4.2907354E-1,-1.6508599E-1,-2.8275907E-1,4.402253E-1,9.615651E-2,5.470898E-1,-1.4459884E-1,3.5766897E-1,3.1753504E-1,-2.132024E-1,-5.8260176E-2,-4.7662374E-1,-1.3196585E-1,-3.867626E-1,2.761195E-1,-2.3440713E-1,-1.5548366E-2,-3.783548E-1],"split_indices":[13,2,0,17,16,9,16,17,3,0,17,15,10,0,17,0,0,3,2,0,0,14,12,1,5,17,3,0,0,0,0,0,0,1,1,15,4,8,16,13,0,0,2,2,9,0,0,0,0,0,0,0,0,0,0,0,0,0,0,0,0,0,0,0,0],"sum_hessian":[9.858125E2,3.352851E2,6.505274E2,1.9949736E1,3.1533536E2,1.977476E2,4.527798E2,1.068275E1,9.266986E0,1.1537342E0,3.1418164E2,1.4691235E2,5.083526E1,2.4092232E1,4.2868756E2,8.617185E0,2.065565E0,6.7971244E0,2.469861E0,1.0145075E0,3.131671E2,7.367693E1,7.323542E1,2.4348413E1,2.6486847E1,2.8795303E2,1.4073453E2,1.0510575E0,1.0145075E0,1.0145075E0,5.782617E0,1.2424653E0,1.2273959E0,3.8221447E1,3.5455482E1,4.8138795E0,6.842154E1,1.6108194E1,8.240218E0,2.3555222E1,2.9316258E0,5.8191667E0,2.8213388E2,1.042343E2,3.650023E1,1.6895306E1,2.132614E1,3.4102806E1,1.3526767E0,2.058592E0,2.7552874E0,1.3816919E0,6.703985E1,1.0145075E0,1.5093687E1,1.1241572E0,7.1160607E0,8.114937E0,1.5440284E1,7.974147E1,2.023924E2,8.9774216E1,1.4460079E1,1.02095175E1,2.6290714E1],"tree_param":{"num_deleted":"0","num_feature":"18","num_nodes":"65","size_leaf_vector":"0"}},{"base_weights":[-4.943264E-1,-1.3954895E0,-1.8048357E-2,-1.6063987E-1,-1.4914488E0,2.591988E-1,-7.927277E-1,-1.1120872E0,4.9654976E-1,9.501811E-1,-1.5038985E0,-1.6787824E-1,1.003368E0,1.5128745E0,-9.717834E-1,-1.2470249E0,-4.5380425E-2,-3.6058578E-1,9.5290273E-1,-1.0705508E0,-1.5294889E0,-5.960475E-1,6.80063E-1,1.3311794E0,4.4787416E-1,-1.1070113E0,1.5562646E0,6.167001E-1,-7.8943276E-1,1.1764711E0,-5.0222653E-1,-1.4080678E0,-1.5763219E-1,7.884902E-2,-9.6914476E-1,-1.085521E0,1.033514E0,1.4699417E0,3.5707873E-1,-2.4834107E-1,1.2210957E0,-3.2610935E-1,-1.45169E0,1.6450884E0,4.66222E-1,-1.0078046E0,-2.3301972E-2,1.3273548E0,5.8913253E-2,-6.811289E-1,4.8141083E-1,7.52037E-1,-5.5345255E-1,1.2030867E0,-1.0393355E0,6.272008E-1,-1.3611178E0,1.2745963E0,-6.5292954E-1,8.7133825E-1,1.6342379E0,-3.1063724E-1,1.1063173E0,9.513484E-1,-7.9646397E-1,1.3566481E0,-2.8139117E-1,8.8425004E-1,-8.188407E-1,1.4587533E-1,-1.4942044E0],"default_left":[true,true,true,true,true,true,true,true,true,false,true,true,true,false,true,false,false,true,true,true,false,true,true,true,true,true,true,false,true,true,false,false,true,true,true,true,true,true,true,true,true,true,true,false,false,false,false,false,false,false,false,false,false,false,false,false,false,false,false,false,false,false,false,false,false,false,false,false,false,false,false],"id":1,"leaf_child_counts":[0,0,0,0,0,0,0,0,0,0,0,0,0,0,0,0,0,0,0,0,0,0,0,0,0,0,0,0,0,0,0,0,0,0,0,0,0,0,0,0,0,0,0,0,0,0,0,0,0,0,0,0,0,0,0,0,0,0,0,0,0,0,0,0,0,0,0,0,0,0,0],"left_children":[1,3,5,7,9,11,13,15,17,-1,19,21,23,-1,25,-1,-1,27,29,31,-1,33,35,37,39,41,43,-1,45,47,-1,-1,49,51,53,55,57,59,61,63,65,67,69,-1,-1,-1,-1,-1,-1,-1,-1,-1,-1,-1,-1,-1,-1,-1,-1,-1,-1,-1,-1,-1,-1,-1,-1,-1,-1,-1,-1],"loss_changes":[4.0302045E2,3.8233887E1,1.3237315E2,1.5891826E1,1.0583313E1,1.444372E2,6.852806E1,1.4304533E0,6.289676E0,0E0,1.6895752E0,1.05429E2,2.957077E1,0E0,5.3459366E1,0E0,0E0,3.0043888E0,3.9072838E0,5.959425E0,0E0,4.86103E1,6.1982418E1,1.3488831E1,3.421156E1,3.834958E1,1.7261505E-2,0E0,7.483616E-1,1.4622946E0,0E0,0E0,2.5161035E0,3.0018383E1,2.01875E1,8.762302E0,3.4077866E1,7.4694366E0,7.471716E0,2.3099243E1,6.4942894E0,2.7834719E1,6.9949036E0,0E0,0E0,0E0,0E0,0E0,0E0,0E0,0E0,0E0,0E0,0E0,0E0,0E0,0E0,0E0,0E0,0E0,0E0,0E0,0E0,0E0,0E0,0E0,0E0,0E0,0E0,0E0,0E0],"parents":[2147483647,0,0,1,1,2,2,3,3,4,4,5,5,6,6,7,7,8,8,10,10,11,11,12,12,14,14,17,17,18,18,19,19,21,21,22,22,23,23,24,24,25,25,26,26,28,28,29,29,32,32,33,33,34,34,35,35,36,36,37,37,38,38,39,39,40,40,41,41,42,42],"right_children":[2,4,6,8,10,12,14,16,18,-1,20,22,24,-1,26,-1,-1,28,30,32,-1,34,36,38,40,42,44,-1,46,48,-1,-1,50,52,54,56,58,60,62,64,66,68,70,-1,-1,-1,-1,-1,-1,-1,-1,-1,-1,-1,-1,-1,-1,-1,-1,-1,-1,-1,-1,-1,-1,-1,-1,-1,-1,-1,-1],"split_conditions":[1.1856614E-2,3.1724355E4,2.2118788E0,1.1968201E1,5.0882998E0,4.0413055E0,5.1323E0,6.091859E0,6.0622603E-2,2.8505436E-1,4.4952137E4,4.2473345E0,6.655736E-1,4.5386237E-1,3.0674693E-1,-3.7410748E-1,-1.3614128E-2,2.1226401E3,5.010061E-1,9.59955E0,-4.588467E-1,2.3850757E3,9.47829E-2,4.9400484E4,1.4744603E1,1.2868775E-1,5.32037E1,1.8501005E-1,3.29887E1,7.797436E0,-1.5066797E-1,-4.2242035E-1,2.0764928E0,2.3707112E3,5.032E0,4.825834E0,1.5087825E0,1.69315E1,7.7606015E0,3.3873274E0,5.9996406E3,3.674466E4,2.0505395E0,4.9352655E-1,1.398666E-1,-3.023414E-1,-6.990592E-3,3.9820644E-1,1.7673977E-2,-2.0433868E-1,1.4442326E-1,2.256111E-1,-1.6603577E-1,3.6092603E-1,-3.1180066E-1,1.8816024E-1,-4.0833536E-1,3.823789E-1,-1.9587888E-1,2.6140147E-1,4.902714E-1,-9.319118E-2,3.318952E-1,2.8540453E-1,-2.389392E-1,4.0699443E-1,-8.441736E-2,2.6527503E-1,-2.4565221E-1,4.3762602E-2,-4.4826135E-1],"split_indices":[13,2,8,17,16,14,16,14,15,0,2,15,9,0,5,0,0,0,7,17,0,0,14,2,15,13,17,0,17,6,0,0,14,1,16,11,10,17,14,10,1,2,10,0,0,0,0,0,0,0,0,0,0,0,0,0,0,0,0,0,0,0,0,0,0,0,0,0,0,0,0],"sum_hessian":[9.3805334E2,3.2368353E2,6.143698E2,2.3532345E1,3.001512E2,4.529357E2,1.6143411E2,9.331077E0,1.4201268E1,1.1405811E0,2.9901062E2,2.8827164E2,1.6466406E2,1.1096851E1,1.5033725E2,8.133192E0,1.1978847E0,5.00694E0,9.194328E0,1.9061241E1,2.7994937E2,1.9174617E2,9.652547E1,1.0267593E2,6.198813E1,1.4323744E2,7.099811E0,1.3934373E0,3.6135027E0,8.135827E0,1.0585011E0,1.3520257E1,5.5409837E0,6.854451E1,1.2320166E2,1.5754791E1,8.0770676E1,8.942776E1,1.3248169E1,3.2975517E1,2.9012613E1,4.4458546E1,9.87789E1,6.0940332E0,1.0057776E0,2.566516E0,1.0469867E0,7.0026574E0,1.13317E0,3.0096529E0,2.5313308E0,3.3107174E1,3.543734E1,3.35116E0,1.198505E2,2.006905E0,1.3747886E1,7.088207E1,9.8886E0,2.0616434E1,6.8811325E1,7.31473E0,5.933439E0,1.0110588E1,2.286493E1,2.670077E1,2.3118439E0,1.263268E1,3.1825867E1,2.4975393E0,9.628136E1],"tree_param":{"num_deleted":"0","num_feature":"18","num_nodes":"71","size_leaf_vector":"0"}},{"base_weights":[-3.920036E-1,-1.221124E0,-2.1626784E-2,-2.3288402E-1,-1.293416E0,-4.2665148E-1,3.6489418E-1,-8.585698E-1,4.5957077E-1,4.4712716E-1,-1.3029813E0,1.3892145E0,-5.480967E-1,8.225697E-1,-6.38303E-2,-1.0315448E0,-6.810509E-2,7.885247E-1,-4.7147578E-1,-1.3118484E0,-5.4100853E-1,1.4842122E0,-6.240875E-1,2.374383E-1,1.1453826E0,6.6012126E-1,-2.7034897E-1,6.235147E-3,1.1093707E0,-7.1728605E-1,-1.2219671E-2,-3.0124602E-1,-1.3153279E0,2.8333834E-1,-9.1820693E-1,-3.3579004E-1,-9.053677E-1,5.390516E-1,-6.546486E-1,1.2460308E0,-1.4748944E-1,1.7160697E-2,8.993406E-1,-7.206093E-1,4.3540075E-2,4.131238E-1,-4.4380438E-1,3.2593742E-1,1.2171863E0,-3.6643592E-1,-1.3193703E0,-9.856103E-2,-8.805131E-1,-9.318274E-1,1.0435755E0,7.803175E-1,-6.574511E-1,-8.9226955E-1,2.627764E-1,-2.6338312E-1,1.2777635E0,-6.7948437E-1,1.0507932E0,7.620838E-1,-6.986424E-1,1.1692526E0,1.3172154E-1,-2.76778E-1,-1.240095E0,7.1276444E-1,-8.0062616E-1],"default_left":[true,true,true,true,true,true,true,true,true,false,true,false,true,true,true,false,false,true,true,true,true,false,true,true,true,true,true,true,true,false,false,false,true,false,false,true,true,true,true,true,true,true,true,true,true,false,false,false,false,false,false,false,false,false,false,false,false,false,false,false,false,false,false,false,false,false,false,false,false,false,false],"id":2,"leaf_child_counts":[0,0,0,0,0,0,0,0,0,0,0,0,0,0,0,0,0,0,0,0,0,0,0,0,0,0,0,0,0,0,0,0,0,0,0,0,0,0,0,0,0,0,0,0,0,0,0,0,0,0,0,0,0,0,0,0,0,0,0,0,0,0,0,0,0,0,0,0,0,0,0],"left_children":[1,3,5,7,9,11,13,15,17,-1,19,-1,21,23,25,-1,-1,27,29,31,33,-1,35,37,39,41,43,45,47,-1,-1,-1,49,-1,-1,51,53,55,57,59,61,63,65,67,69,-1,-1,-1,-1,-1,-1,-1,-1,-1,-1,-1,-1,-1,-1,-1,-1,-1,-1,-1,-1,-1,-1,-1,-1,-1,-1],"loss_changes":[2.6123376E2,1.8465088E1,9.2377975E1,8.680803E0,4.654175E0,6.4300095E1,5.9303925E1,1.3511591E0,3.3516793E0,0E0,9.352722E-1,0E0,4.274402E1,2.7329353E1,2.3628136E1,0E0,0E0,1.8915205E0,3.4864116E-1,4.475708E-1,1.6601994E0,0E0,2.0919487E1,1.4671271E1,1.2403824E1,5.3835897E0,1.7378693E1,7.703312E-1,5.5854797E-2,0E0,0E0,0E0,4.3273926E-1,0E0,0E0,1.682056E1,7.7734375E0,1.215176E1,3.26412E0,4.5148163E0,5.6078606E0,6.151513E0,5.1426086E0,1.1294611E1,4.1961456E1,0E0,0E0,0E0,0E0,0E0,0E0,0E0,0E0,0E0,0E0,0E0,0E0,0E0,0E0,0E0,0E0,0E0,0E0,0E0,0E0,0E0,0E0,0E0,0E0,0E0,0E0],"parents":[2147483647,0,0,1,1,2,2,3,3,4,4,5,5,6,6,7,7,8,8,10,10,12,12,13,13,14,14,17,17,18,18,19,19,20,20,22,22,23,23,24,24,25,25,26,26,27,27,28,28,32,32,35,35,36,36,37,37,38,38,39,39,40,40,41,41,42,42,43,43,44,44],"right_children":[2,4,6,8,10,12,14,16,18,-1,20,-1,22,24,26,-1,-1,28,30,32,34,-1,36,38,40,42,44,46,48,-1,-1,-1,50,-1,-1,52,54,56,58,60,62,64,66,68,70,-1,-1,-1,-1,-1,-1,-1,-1,-1,-1,-1,-1,-1,-1,-1,-1,-1,-1,-1,-1,-1,-1,-1,-1,-1,-1],"split_conditions":[1.0224832E-2,3.1787027E4,1.8956299E1,1.88041E1,5.18975E0,5.0387497E0,4.6761757E-1,7.5215865E-3,3.4089365E3,1.3413815E-1,4.635775E1,4.1676438E-1,1.1999999E-3,1.3495628E0,2.0351274E3,-3.0946344E-1,-2.0431526E-2,1.2691939E0,1.3935519E-2,1.295E-2,6.2737035E4,4.4526365E-1,2.9632388E3,3.5270654E3,5.44096E3,4.1117377E0,6.893079E0,3.3575362E-1,7.6837363E-3,-2.1518582E-1,-3.6659015E-3,-9.037381E-2,1.7824089E3,8.5001506E-2,-2.754621E-1,1.6076994E-1,3.094024E-1,4.9705672E-1,6.624773E0,1.6715813E-2,5.124301E0,6.433213E-2,1.6624344E1,2.3146858E0,2.244992E0,1.2393714E-1,-1.3314132E-1,9.778123E-2,3.651559E-1,-1.09930776E-1,-3.958111E-1,-2.956831E-2,-2.6415393E-1,-2.7954823E-1,3.1307268E-1,2.3409526E-1,-1.9723533E-1,-2.6768088E-1,7.8832924E-2,-7.901494E-2,3.8332906E-1,-2.0384532E-1,3.1523797E-1,2.2862516E-1,-2.0959271E-1,3.507758E-1,3.9516464E-2,-8.3033405E-2,-3.7202853E-1,2.1382934E-1,-2.4018785E-1],"split_indices":[13,2,17,17,16,16,9,13,0,0,17,0,17,15,0,0,0,14,11,17,2,0,0,0,0,15,15,6,4,0,0,0,0,0,0,13,5,11,14,13,15,13,10,11,8,0,0,0,0,0,0,0,0,0,0,0,0,0,0,0,0,0,0,0,0,0,0,0,0,0,0],"sum_hessian":[8.497693E2,2.6167972E2,5.880896E2,1.8125345E1,2.4355435E2,2.871203E2,3.009693E2,9.39571E0,8.729634E0,1.0811386E0,2.4247322E2,1.7344461E1,2.6977585E2,1.4512529E2,1.5584401E2,7.458585E0,1.9371248E0,6.5636625E0,2.165972E0,2.3897066E2,3.502558E0,9.055759E0,2.6072006E2,5.2215282E1,9.291E1,3.4102215E1,1.217418E2,2.205537E0,4.3581257E0,1.0448745E0,1.1210974E0,1.1204371E0,2.3785022E2,1.1776664E0,2.3248916E0,1.2983737E2,1.3088269E2,3.931775E1,1.2897532E1,8.6233116E1,6.676886E0,9.538066E0,2.4564148E1,4.947553E1,7.2266266E1,1.201378E0,1.0041592E0,1.0138885E0,3.344237E0,1.3977674E0,2.3645245E2,9.126991E1,3.8567467E1,1.2964447E2,1.2382327E0,3.3009468E1,6.308281E0,1.0265976E1,2.6315563E0,1.6252592E0,8.460786E1,4.9238315E0,1.7530549E0,4.6422777E0,4.8957887E0,1.778672E1,6.7774262E0,2.7507137E1,2.1968391E1,4.0396805E1,3.1869463E1],"tree_param":{"num_deleted":"0","num_feature":"18","num_nodes":"71","size_leaf_vector":"0"}},{"base_weights":[-3.1598678E-1,-9.849853E-1,5.2144848E-2,-1.114638E0,-2.1635303E-1,4.0288857E-1,-3.6634597E-1,9.5767003E-1,-1.136871E0,2.437199E-1,-1.0679507E0,-8.889005E-3,1.0993848E0,1.2678168E0,-4.7997943E-1,7.1992433E-1,-1.1493516E0,7.3564166E-1,-7.947531E-1,-1.446085E-1,-1.1337978E0,3.4810704E-1,-6.586125E-1,1.2001231E0,-5.0019664E-1,-5.4765636E-1,1.5356593E0,-2.2864373E-1,-1.1694897E0,2.3585193E-1,1.2843803E0,5.9381914E-1,-1.0738673E0,1.1270878E0,-3.1226566E-2,-8.3781177E-1,8.329102E-1,8.912743E-1,1.3625928E0,-8.8312143E-1,6.180475E-1,-2.664119E-1,-1.0797448E0,9.329452E-1,-6.3830686E-1,-1.2245531E0,-8.984951E-1,4.8717234E-1,-9.704803E-1,1.4008714E0,1.9844751E-1,-1.2339126E0,-5.905696E-2,2.8705424E-1,1.4776777E0,-5.620869E-1,6.647128E-1,-1.211254E0,-2.8797233E-1,1.1543657E0,-4.790262E-1,1.1705599E0,-1.1478833E0,1.3758684E0,2.956277E-1,-2.1325442E-1,-1.0326453E0,-6.8075657E-1,2.0116563E-1,-1.1215808E0,8.2574445E-1],"default_left":[true,true,true,true,true,true,true,false,true,true,true,true,true,false,true,false,true,true,true,false,false,true,true,true,true,true,false,true,true,true,true,false,true,true,true,true,true,true,true,true,false,true,true,false,false,false,false,false,false,false,false,false,false,false,false,false,false,false,false,false,false,false,false,false,false,false,false,false,false,false,false],"id":3,"leaf_child_counts":[0,0,0,0,0,0,0,0,0,0,0,0,0,0,0,0,0,0,0,0,0,0,0,0,0,0,0,0,0,0,0,0,0,0,0,0,0,0,0,0,0,0,0,0,0,0,0,0,0,0,0,0,0,0,0,0,0,0,0,0,0,0,0,0,0,0,0,0,0,0,0],"left_children":[1,3,5,7,9,11,13,-1,15,17,19,21,23,-1,25,-1,27,29,31,-1,-1,33,35,37,39,41,-1,43,45,47,49,-1,51,53,55,57,59,61,63,65,-1,67,69,-1,-1,-1,-1,-1,-1,-1,-1,-1,-1,-1,-1,-1,-1,-1,-1,-1,-1,-1,-1,-1,-1,-1,-1,-1,-1,-1,-1],"loss_changes":[1.8834792E2,2.6808685E1,7.267754E1,1.1778564E1,1.6095898E1,7.72456E1,4.254409E1,0E0,6.1576843E0,1.4405827E1,7.092762E-1,3.9714905E1,1.67249E1,0E0,2.9743046E1,0E0,3.9759827E0,4.874485E0,4.194502E0,0E0,0E0,3.2693504E1,1.6925215E1,3.5240173E0,3.386691E0,3.0498772E1,0E0,3.518047E0,2.238037E0,3.8394573E0,8.318615E-1,0E0,1.2260218E0,1.0243256E1,2.8192928E1,1.0882847E1,3.5107565E0,2.1528683E1,4.4297028E-1,3.160262E-1,0E0,2.6469025E1,6.571083E0,0E0,0E0,0E0,0E0,0E0,0E0,0E0,0E0,0E0,0E0,0E0,0E0,0E0,0E0,0E0,0E0,0E0,0E0,0E0,0E0,0E0,0E0,0E0,0E0,0E0,0E0,0E0,0E0],"parents":[2147483647,0,0,1,1,2,2,3,3,4,4,5,5,6,6,8,8,9,9,10,10,11,11,12,12,14,14,16,16,17,17,18,18,21,21,22,22,23,23,24,24,25,25,27,27,28,28,29,29,30,30,32,32,33,33,34,34,35,35,36,36,37,37,38,38,39,39,41,41,42,42],"right_children":[2,4,6,8,10,12,14,-1,16,18,20,22,24,-1,26,-1,28,30,32,-1,-1,34,36,38,40,42,-1,44,46,48,50,-1,52,54,56,58,60,62,64,66,-1,68,70,-1,-1,-1,-1,-1,-1,-1,-1,-1,-1,-1,-1,-1,-1,-1,-1,-1,-1,-1,-1,-1,-1,-1,-1,-1,-1,-1,-1],"split_conditions":[5.819722E-1,2.3750801E1,9.492493E-1,5.0882998E0,6.267668E4,3.9048352E0,5.02785E0,2.8730103E-1,3.5E-3,1.6497755E-1,6.4694E0,9.305256E-1,6.994017E3,3.8034505E-1,4.087727E-1,2.1597731E-1,1.7523757E3,1.9712889E-1,2.29865E1,-4.338255E-2,-3.4013933E-1,5.370172E-1,1.0981798E1,7.121969E0,6.904092E0,2.2691989E-1,4.606978E-1,2.83937E1,7.8012E0,1.0895317E-1,1.442162E-1,1.7814575E-1,2.6994185E0,7.842649E-1,1.4088627E0,2.557019E0,1.9676774E0,3.8510847E0,5.0215206E0,4.0506583E-1,1.8541425E-1,1.0429901E1,4.7320396E1,2.7988356E-1,-1.9149207E-1,-3.6736596E-1,-2.6954854E-1,1.461517E-1,-2.911441E-1,4.2026144E-1,5.9534255E-2,-3.7017378E-1,-1.771709E-2,8.611628E-2,4.4330332E-1,-1.6862607E-1,1.9941385E-1,-3.633762E-1,-8.63917E-2,3.4630972E-1,-1.4370787E-1,3.5116798E-1,-3.44365E-1,4.1276056E-1,8.8688314E-2,-6.397633E-2,-3.0979362E-1,-2.0422699E-1,6.034969E-2,-3.3647427E-1,2.4772334E-1],"split_indices":[15,17,9,16,2,15,16,0,17,11,16,11,0,0,4,0,0,15,16,0,0,7,14,15,14,12,0,16,17,11,12,0,14,15,15,15,11,11,8,9,0,15,6,0,0,0,0,0,0,0,0,0,0,0,0,0,0,0,0,0,0,0,0,0,0,0,0,0,0,0,0],"sum_hessian":[7.635644E2,2.7043408E2,4.931303E2,2.3101619E2,3.9417908E1,2.6830063E2,2.2482968E2,2.005567E0,2.2901062E2,2.605538E1,1.3362527E1,1.6923433E2,9.90663E1,1.3956998E1,2.1087268E2,1.15058E0,2.2786003E2,1.7878159E1,8.177222E0,1.1022545E0,1.2260272E1,1.0952121E2,5.9713127E1,9.343188E1,5.634418E0,2.0472708E2,6.145606E0,5.1415977E0,2.2271844E2,1.0104663E1,7.773495E0,1.1798825E0,6.9973397E0,3.5221283E1,7.429993E1,5.3699654E1,6.0134716E0,3.444295E1,5.898893E1,4.353792E0,1.2806257E0,1.3491574E2,6.981134E1,1.007503E0,4.1340947E0,1.821821E2,4.0536343E1,8.855842E0,1.2488217E0,6.7584767E0,1.0150182E0,5.8576303E0,1.1397095E0,1.090678E1,2.4314505E1,4.2257996E1,3.204193E1,3.1263239E1,2.2436417E1,4.926474E0,1.0869976E0,3.0668512E1,3.774438E0,5.7978027E1,1.010903E0,1.2372292E0,3.116563E0,7.12879E1,6.362783E1,6.871408E1,1.0972594E0],"tree_param":{"num_deleted":"0","num_feature":"18","num_nodes":"71","size_leaf_vector":"0"}},{"base_weights":[-2.5721458E-1,1.0849145E-1,-7.9364216E-1,-4.1329736E-1,3.2652676E-1,-1.0407108E0,-2.9738373E-1,1.2789967E0,-5.437833E-1,5.04589E-1,-3.0412868E-1,7.7151227E-1,-1.0584757E0,9.246503E-2,-6.829153E-1,-1.1051816E0,-2.5699934E-1,2.453656E-1,1.0105988E0,-4.290203E-1,1.1544635E0,-1.0860308E0,-3.359504E-1,-4.169252E-1,1.0304486E0,7.217757E-1,-7.95778E-1,-1.1848241E0,2.5722742E-1,8.219517E-1,-4.0416306E-1,4.0230995E-1,-7.282729E-1,1.3115314E0,7.2874796E-1,4.5847982E-2,-9.374506E-1,-1.1132532E0,-7.3753196E-1,5.6481534E-1,-6.0182434E-1,-6.214341E-1,4.85071E-1,5.041429E-1,1.3719316E0,9.5350796E-1,1.2534358E-1,-8.67218E-1,9.283718E-1,-1.2238572E0,-3.481017E-1,1.2024499E0,2.2509572E-1,-2.0190564E-1,-8.996489E-1,7.480334E-2,8.5568285E-1,-9.0415925E-1,4.223518E-1,1.885945E-1,1.3388693E0,-8.367204E-1,1.0228207E0,6.828678E-1,-3.4959164E-1,-1.0240663E0,6.9052726E-1,-3.251479E-1,-1.0902675E0,-8.169719E-1,1.5105195E-2,6.20992E-1,-7.3255867E-1,1.104792E0,-7.8882605E-1,1.2859524E0,-4.0748194E-1,6.467828E-1,-9.348926E-1],"default_left":[true,true,true,true,true,true,true,false,true,true,true,false,true,true,true,true,true,true,true,true,false,true,true,true,true,true,true,true,false,true,true,true,true,true,true,true,true,false,true,false,true,true,true,true,false,false,false,true,false,false,false,false,false,false,false,false,false,false,false,false,false,false,false,false,false,false,false,false,false,false,false,false,false,false,false,false,false,false,false],"id":4,"leaf_child_counts":[0,0,0,0,0,0,0,0,0,0,0,0,0,0,0,0,0,0,0,0,0,0,0,0,0,0,0,0,0,0,0,0,0,0,0,0,0,0,0,0,0,0,0,0,0,0,0,0,0,0,0,0,0,0,0,0,0,0,0,0,0,0,0,0,0,0,0,0,0,0,0,0,0,0,0,0,0,0,0],"left_children":[1,3,5,7,9,11,13,-1,15,17,19,-1,21,23,25,27,29,31,33,35,-1,37,39,41,43,45,47,49,-1,51,53,55,57,59,61,63,65,-1,67,-1,69,71,73,75,-1,-1,-1,77,-1,-1,-1,-1,-1,-1,-1,-1,-1,-1,-1,-1,-1,-1,-1,-1,-1,-1,-1,-1,-1,-1,-1,-1,-1,-1,-1,-1,-1,-1,-1],"loss_changes":[1.333768E2,4.6199104E1,3.3476196E1,2.7142881E1,3.228419E1,6.7263184E0,1.4039364E1,0E0,1.773132E1,2.906881E1,1.2085161E1,0E0,3.2627106E0,2.2941912E1,8.005465E0,4.377098E0,1.2298929E1,2.3078312E1,5.438759E0,1.4368352E1,0E0,8.3976746E-1,2.2897024E0,6.0653214E0,2.3403587E0,4.347694E-1,6.2077827E0,7.378578E-1,0E0,1.8584967E0,6.531826E0,1.9098652E1,4.64299E0,8.2842255E-1,1.9813639E1,8.207121E0,4.7542152E0,0E0,1.9215546E0,0E0,9.109454E-1,4.032096E0,5.874053E0,6.3822365E0,0E0,0E0,0E0,4.9729652E0,0E0,0E0,0E0,0E0,0E0,0E0,0E0,0E0,0E0,0E0,0E0,0E0,0E0,0E0,0E0,0E0,0E0,0E0,0E0,0E0,0E0,0E0,0E0,0E0,0E0,0E0,0E0,0E0,0E0,0E0,0E0],"parents":[2147483647,0,0,1,1,2,2,3,3,4,4,5,5,6,6,8,8,9,9,10,10,12,12,13,13,14,14,15,15,16,16,17,17,18,18,19,19,21,21,22,22,23,23,24,24,25,25,26,26,27,27,29,29,30,30,31,31,32,32,33,33,34,34,35,35,36,36,38,38,40,40,41,41,42,42,43,43,47,47],"right_children":[2,4,6,8,10,12,14,-1,16,18,20,-1,22,24,26,28,30,32,34,36,-1,38,40,42,44,46,48,50,-1,52,54,56,58,60,62,64,66,-1,68,-1,70,72,74,76,-1,-1,-1,78,-1,-1,-1,-1,-1,-1,-1,-1,-1,-1,-1,-1,-1,-1,-1,-1,-1,-1,-1,-1,-1,-1,-1,-1,-1,-1,-1,-1,-1,-1,-1],"split_conditions":[3.716172E3,9.03875E0,2.0864892E0,1.1849999E-2,1.9473373E0,4.9962997E0,9.343115E-1,3.8369903E-1,5.2310012E-2,4.4264226E0,3.1237555E-1,2.3145369E-1,4.62971E1,3.4756033E0,6.1694E0,2.4362442E-1,8.8562E0,1.5780787E0,4.200886E0,3.0745393E-1,3.4633908E-1,1.2456713E-2,3.4343234E4,2.3714027E1,9.212469E0,4.5971375E0,2.3751456E-1,6.43635E0,7.7168226E-2,2.4280262E0,2.269271E-1,3.0060363E0,8.943354E0,1.5277004E3,9.513008E0,2.4008274E0,3.518128E1,-3.3397597E-1,7.248362E-1,1.694446E-1,1.6734421E-2,7.947279E-1,7.741729E0,2.2945685E0,4.115795E-1,2.860524E-1,3.7603073E-2,1.2695458E0,2.7851155E-1,-3.6715716E-1,-1.0443052E-1,3.60735E-1,6.752872E-2,-6.0571693E-2,-2.698947E-1,2.2441002E-2,2.5670487E-1,-2.7124777E-1,1.2670554E-1,5.6578353E-2,4.0166083E-1,-2.5101614E-1,3.0684623E-1,2.0486036E-1,-1.04877494E-1,-3.0721992E-1,2.071582E-1,-9.754437E-2,-3.2708028E-1,-2.4509157E-1,4.5315586E-3,1.8629761E-1,-2.1976762E-1,3.3143762E-1,-2.3664783E-1,3.8578576E-1,-1.2224459E-1,1.9403486E-1,-2.8046778E-1],"split_indices":[0,17,15,17,9,16,8,0,9,15,4,0,17,14,16,11,16,11,11,13,0,5,2,15,15,9,5,17,0,11,13,14,14,1,15,10,7,0,11,0,13,11,9,11,0,0,0,11,0,0,0,0,0,0,0,0,0,0,0,0,0,0,0,0,0,0,0,0,0,0,0,0,0,0,0,0,0,0,0],"sum_hessian":[6.784486E2,4.0389413E2,2.7455444E2,1.1876866E2,2.851255E2,1.8256502E2,9.198943E1,7.872112E0,1.10896545E2,2.2250285E2,6.2622627E1,1.3603942E0,1.8120462E2,4.6116592E1,4.587284E1,3.653101E1,7.436554E1,1.481117E2,7.439116E1,5.8333687E1,4.2889404E0,1.7406323E2,7.1413903E0,3.0246273E1,1.5870319E1,3.0103843E0,4.2862457E1,3.46366E1,1.8944093E0,8.375336E0,6.5990204E1,1.2805658E2,2.0055109E1,3.4210865E1,4.0180294E1,3.0632807E1,2.7700878E1,1.5941623E2,1.4647005E1,1.3712618E0,5.7701287E0,2.4909588E1,5.3366847E0,7.2195797E0,8.65074E0,1.7368702E0,1.2735142E0,4.1634357E1,1.2280988E0,3.265076E1,1.9858365E0,4.4950695E0,3.8802657E0,4.7860874E1,1.8129328E1,7.50251E1,5.3031487E1,1.7581738E1,2.4733715E0,1.0007907E0,3.321007E1,6.062399E0,3.4117893E1,1.14542E1,1.9178608E1,2.6653736E1,1.0471418E0,7.638548E0,7.008457E0,4.0377517E0,1.7323769E0,1.6683528E0,2.3241236E1,3.6794603E0,1.6572245E0,3.6654625E0,3.554117E0,1.4152591E0,4.0219097E1],"tree_param":{"num_deleted":"0","num_feature":"18","num_nodes":"79","size_leaf_vector":"0"}},{"base_weights":[-2.0859253E-1,-9.642089E-1,3.0610065E-3,-3.037532E-1,-1.0629963E0,1.5930577E-1,-5.1215863E-1,-8.919593E-1,1.6683885E-1,-1.0883329E0,-3.8776845E-1,2.64368E-1,-5.0292695E-1,-7.574174E-1,2.5129166E-2,-1.0290945E-2,-1.0351467E0,-5.745395E-1,4.21976E-1,7.2313654E-1,-7.818963E-1,-2.3196213E-2,5.2234924E-1,-8.0643463E-1,1.0598725E0,8.2283276E-1,-8.236188E-1,6.4480203E-1,-6.758834E-1,9.0633595E-1,-3.236521E-3,1.3499226E-1,-1.0389874E0,1.11242E0,3.1678632E-1,-9.273493E-1,1.7673963E-1,3.633997E-1,1.1757077E0,-9.686983E-1,-1.5594698E-1,9.114464E-1,-5.813866E-1,-8.593452E-1,6.2973976E-1,3.399417E-1,1.1327175E0,-3.2927433E-1,6.8240666E-1,-1.4934652E-1,5.6687105E-1,-1.1088042E0,-1.3361175E-1,1.4733901E0,5.806045E-1,-5.299186E-1,5.923614E-1,-9.7587186E-1,3.235769E-1,9.004276E-1,-6.7891663E-1,-6.538714E-1,-1.0862466E0,1.1426622E0,-5.5519265E-1,1.1073644E0,-3.651857E-2,-1.0890084E-1,-7.01383E-1,3.8241547E-1,-9.741861E-1],"default_left":[true,true,true,true,true,true,true,true,true,false,true,true,true,true,true,false,false,false,true,false,false,true,true,true,true,false,true,true,true,true,true,true,true,true,true,true,true,false,false,true,true,true,true,true,false,false,false,false,false,false,false,false,false,false,false,false,false,false,false,false,false,false,false,false,false,false,false,false,false,false,false],"id":5,"leaf_child_counts":[0,0,0,0,0,0,0,0,0,0,0,0,0,0,0,0,0,0,0,0,0,0,0,0,0,0,0,0,0,0,0,0,0,0,0,0,0,0,0,0,0,0,0,0,0,0,0,0,0,0,0,0,0,0,0,0,0,0,0,0,0,0,0,0,0,0,0,0,0,0,0],"left_children":[1,3,5,7,9,11,13,15,17,-1,19,21,23,25,27,-1,-1,-1,29,-1,-1,31,33,35,37,-1,39,41,43,45,47,49,51,53,55,57,59,-1,-1,61,63,65,67,69,-1,-1,-1,-1,-1,-1,-1,-1,-1,-1,-1,-1,-1,-1,-1,-1,-1,-1,-1,-1,-1,-1,-1,-1,-1,-1,-1],"loss_changes":[9.6675575E1,8.307114E0,3.817449E1,5.300229E0,1.5395966E0,2.5448322E1,1.4560053E1,1.0534654E0,2.3574002E0,0E0,3.0612411E0,2.3357641E1,2.4649256E1,8.607048E0,1.5879582E1,0E0,0E0,0E0,1.8349173E0,0E0,0E0,2.420618E1,1.9773018E1,5.2252464E0,2.6577568E-1,0E0,6.944111E0,6.8671722E0,4.6537995E0,1.4858103E-1,1.5063236E0,1.6106817E1,1.1347542E0,7.297352E0,2.935184E1,2.6267052E0,4.018654E0,0E0,0E0,1.5094681E0,8.031275E0,3.0695915E0,1.5452135E-1,2.5796432E0,0E0,0E0,0E0,0E0,0E0,0E0,0E0,0E0,0E0,0E0,0E0,0E0,0E0,0E0,0E0,0E0,0E0,0E0,0E0,0E0,0E0,0E0,0E0,0E0,0E0,0E0,0E0],"parents":[2147483647,0,0,1,1,2,2,3,3,4,4,5,5,6,6,7,7,8,8,10,10,11,11,12,12,13,13,14,14,18,18,21,21,22,22,23,23,24,24,26,26,27,27,28,28,29,29,30,30,31,31,32,32,33,33,34,34,35,35,36,36,39,39,40,40,41,41,42,42,43,43],"right_children":[2,4,6,8,10,12,14,16,18,-1,20,22,24,26,28,-1,-1,-1,30,-1,-1,32,34,36,38,-1,40,42,44,46,48,50,52,54,56,58,60,-1,-1,62,64,66,68,70,-1,-1,-1,-1,-1,-1,-1,-1,-1,-1,-1,-1,-1,-1,-1,-1,-1,-1,-1,-1,-1,-1,-1,-1,-1,-1,-1],"split_conditions":[9.07818E-3,4.222802E4,3.9294937E3,6.4260745E-3,7.68123E-2,3.0878335E-1,7.934761E0,1.8435045E4,8.90075E0,-3.2649988E-1,4.8206963E3,2.560152E0,2.5544727E-1,5.7729E0,2.1938765E0,-3.0872836E-3,-3.10544E-1,-1.7236185E-1,2.9069446E-2,2.1694097E-1,-2.345689E-1,1.3079902E0,1.9655894E0,2.1122983E2,3.9597845E-1,2.4684983E-1,6.8275013E0,1.23401484E5,2.8009445E1,1.835798E4,3.627572E-1,2.5582905E0,9.441983E0,2.4013638E0,6.0996313E0,2.281993E1,1.1257415E2,1.0901992E-1,3.5271233E-1,2.1431747E-1,6.4573116E0,1.1106055E-1,1.7755387E-2,7.896168E0,1.8892194E-1,1.0198252E-1,3.3981526E-1,-9.87823E-2,2.04722E-1,-4.4803955E-2,1.7006132E-1,-3.3264127E-1,-4.0083528E-2,4.4201705E-1,1.7418136E-1,-1.5897559E-1,1.7770842E-1,-2.9276156E-1,9.707307E-2,2.7012828E-1,-2.03675E-1,-1.9616143E-1,-3.25874E-1,3.4279865E-1,-1.665578E-1,3.3220935E-1,-1.0955571E-2,-3.2670252E-2,-2.104149E-1,1.1472464E-1,-2.9225585E-1],"split_indices":[13,2,1,9,9,13,14,3,17,0,0,15,5,16,9,0,0,0,9,0,0,11,11,15,5,0,15,3,9,3,8,14,14,7,15,8,10,0,0,8,11,13,5,10,0,0,0,0,0,0,0,0,0,0,0,0,0,0,0,0,0,0,0,0,0,0,0,0,0,0,0],"sum_hessian":[6.034726E2,1.3127109E2,4.7220154E2,1.7610262E1,1.1366082E2,3.6285382E2,1.0934772E2,7.4290667E0,1.0181195E1,1.08960495E2,4.7003274E0,3.1368842E2,4.9165405E1,7.479563E1,3.4552086E1,1.187706E0,6.2413607E0,2.2861648E0,7.8950305E0,1.0122844E0,3.6880429E0,1.4876947E2,1.6491895E2,4.157517E1,7.590237E0,2.5478716E0,7.2247765E1,1.8382618E1,1.6169466E1,3.1618617E0,4.7331686E0,1.2947372E2,1.9295746E1,4.1469284E1,1.2344965E2,3.7072613E1,4.5025573E0,1.6723357E0,5.9179015E0,5.8980858E1,1.3266903E1,1.5310018E1,3.0726006E0,1.4477016E1,1.6924495E0,1.6172422E0,1.5446194E0,3.5600488E0,1.1731198E0,7.8467064E1,5.100666E1,1.7705706E1,1.5900413E0,2.3647821E1,1.7821463E1,3.0086348E1,9.336331E1,3.589996E1,1.1726533E0,2.411045E0,2.0915122E0,1.781906E1,4.11618E1,2.6818178E0,1.0585086E1,1.2548452E1,2.7615652E0,1.0086348E0,2.0639658E0,1.0282899E0,1.3448727E1],"tree_param":{"num_deleted":"0","num_feature":"18","num_nodes":"71","size_leaf_vector":"0"}},{"base_weights":[-1.7047234E-1,7.301756E-2,-6.970649E-1,-2.439898E-1,3.0391666E-1,1.0791875E0,-7.9476553E-1,-9.675442E-1,-1.4456762E-1,-1.0918678E0,3.6671904E-1,-1.0210319E0,-3.0174446E-1,-2.0372032E-1,-1.0012044E0,1.0409755E0,-2.0825417E-1,3.8404688E-1,-1.314631E0,5.463695E-1,-6.705976E-2,-2.7937738E-2,-1.0310162E0,-9.556573E-1,-5.156663E-2,-1.0308545E0,-2.537297E-1,1.1468171E0,1.8673873E-1,1.0751439E0,-2.5631648E-1,-4.9262413E-1,-1.4247696E0,8.548611E-1,2.470924E-1,-1.0130608E0,1.6714777E-1,-1.0838252E0,-7.705974E-1,-2.3334059E-1,-9.949119E-1,5.9525377E-1,-3.8297898E-1,-6.678305E-1,-1.2451606E-1,2.2387965E-1,9.720735E-1,-2.9620241E-2,6.404415E-1,-1.1791041E0,-9.0001516E-2,4.2997473E-1,-5.526953E-1,-8.681029E-1,1.279864E-1,-1.0308299E0,-3.0597278E-1,-1.4023721E-1,1.3560109E0,6.863129E-1,-5.202352E-1],"default_left":[true,true,true,true,true,false,true,true,true,true,true,true,true,false,true,true,true,false,true,true,true,false,true,true,true,false,false,false,false,false,true,false,false,true,true,true,true,false,true,false,true,true,true,false,false,false,false,false,false,false,false,false,false,false,false,false,false,false,false,false,false],"id":6,"leaf_child_counts":[0,0,0,0,0,0,0,0,0,0,0,0,0,0,0,0,0,0,0,0,0,0,0,0,0,0,0,0,0,0,0,0,0,0,0,0,0,0,0,0,0,0,0,0,0,0,0,0,0,0,0,0,0,0,0,0,0,0,0,0,0],"left_children":[1,3,5,7,9,-1,11,13,15,17,19,21,23,-1,25,27,29,-1,31,33,35,-1,37,39,41,-1,-1,-1,-1,-1,43,-1,-1,45,47,49,51,-1,53,-1,55,57,59,-1,-1,-1,-1,-1,-1,-1,-1,-1,-1,-1,-1,-1,-1,-1,-1,-1,-1],"loss_changes":[7.0077965E1,2.7476688E1,3.0842049E1,1.1249337E1,1.9426445E1,0E0,1.8025528E1,2.8326797E-1,1.0815197E1,3.6601143E0,1.6280867E1,1.0839844E0,8.640581E0,0E0,1.3505173E-1,4.4793415E-1,8.544043E0,0E0,7.3498726E-2,1.3407764E1,1.3892341E1,0E0,6.924896E-1,1.8300247E-1,8.690334E0,0E0,0E0,0E0,0E0,0E0,6.968631E0,0E0,0E0,5.124527E0,8.321744E0,1.7994509E0,9.792896E0,0E0,2.0551977E0,0E0,2.0650864E-2,7.8924522E0,4.2773256E0,0E0,0E0,0E0,0E0,0E0,0E0,0E0,0E0,0E0,0E0,0E0,0E0,0E0,0E0,0E0,0E0,0E0,0E0],"parents":[2147483647,0,0,1,1,2,2,3,3,4,4,6,6,7,7,8,8,9,9,10,10,11,11,12,12,14,14,15,15,16,16,18,18,19,19,20,20,22,22,23,23,24,24,30,30,33,33,34,34,35,35,36,36,38,38,40,40,41,41,42,42],"right_children":[2,4,6,8,10,-1,12,14,16,18,20,22,24,-1,26,28,30,-1,32,34,36,-1,38,40,42,-1,-1,-1,-1,-1,44,-1,-1,46,48,50,52,-1,54,-1,56,58,60,-1,-1,-1,-1,-1,-1,-1,-1,-1,-1,-1,-1,-1,-1,-1,-1,-1,-1],"split_conditions":[6.283841E4,1.707925E1,5.0387497E0,1.2125677E-2,5.841966E-3,3.2375628E-1,2.9270492E-2,4.062841E-2,7.2511997E0,1.4078E4,3.5245305E4,1.585E-2,3.1533545E4,-6.1116096E-2,2.7707695E1,2.4579994E-1,1.1999999E-3,1.1521407E-1,2.1101095E-1,2.9581746E-1,1.8335062E4,-8.381322E-3,1.05349205E-1,7.760702E-2,1.942553E0,-3.0925635E-1,-7.6118916E-2,3.4404513E-1,5.602162E-2,3.225432E-1,3.3659E0,-1.4778724E-1,-4.274309E-1,1.2468876E-2,1.4992182E1,1.0067111E1,1.2899128E-1,-3.2514757E-1,7.227083E0,-7.000218E-2,6.2724815E1,1.8415983E0,2.623576E3,-2.0034917E-1,-3.735482E-2,6.71639E-2,2.9162207E-1,-8.886073E-3,1.9213246E-1,-3.5373124E-1,-2.7000455E-2,1.2899242E-1,-1.6580859E-1,-2.6043087E-1,3.8395923E-2,-3.0924898E-1,-9.179184E-2,-4.2071164E-2,4.0680328E-1,2.0589389E-1,-1.5607056E-1],"split_indices":[2,17,16,9,8,0,13,8,16,3,3,17,3,0,14,13,17,0,9,8,2,0,9,7,11,0,0,0,0,0,17,0,0,12,14,14,13,0,14,0,15,15,0,0,0,0,0,0,0,0,0,0,0,0,0,0,0,0,0,0,0],"sum_hessian":[5.4514795E2,3.7336835E2,1.7177957E2,1.5732126E2,2.1604709E2,8.432169E0,1.6334741E2,1.7950813E1,1.3937044E2,8.596816E0,2.0745027E2,1.1122911E2,5.2118294E1,1.0553285E0,1.6895485E1,6.3228836E0,1.3304756E2,1.0324323E0,7.5643835E0,1.4651231E2,6.0937958E1,1.1449463E0,1.1008417E2,1.3641732E1,3.8476562E1,1.588621E1,1.0092736E0,5.3210855E0,1.0017978E0,4.031281E0,1.2901628E2,1.5404181E0,6.0239654E0,7.123138E1,7.5280945E1,1.1432959E1,4.9505E1,8.8895615E1,2.1188557E1,1.0610906E0,1.2580642E1,1.2765639E1,2.5710924E1,3.0310934E1,9.870534E1,1.1615032E1,5.961634E1,4.473531E1,3.0545635E1,9.454806E0,1.9781517E0,3.6559273E1,1.294573E1,1.9145044E1,2.043512E0,1.1485582E1,1.0950599E0,6.905319E0,5.86032E0,2.4697957E0,2.3241127E1],"tree_param":{"num_deleted":"0","num_feature":"18","num_nodes":"61","size_leaf_vector":"0"}},{"base_weights":[-1.3873202E-1,-9.47465E-1,-1.0066435E-2,2.0184147E-1,-9.9410474E-1,4.3222636E-1,-1.4128378E-1,-4.8361403E-1,7.783406E-1,-1.0105916E0,-6.673414E-2,7.431595E-1,1.9985083E-1,1.0795456E0,-1.8642299E-1,-2.7793413E-1,-1.0189085E0,9.748177E-1,1.5478562E-1,8.17223E-1,-2.3176735E-2,1.3626461E-2,-4.285275E-1,1.0429968E0,2.0574808E-1,-7.5899833E-1,4.6335343E-1,-2.6644164E-1,9.4023156E-1,-6.65878E-1,2.2421014E-1,-3.4913397E-1,5.513305E-1,-4.678887E-1,1.0546974E0,1.2231257E0,5.414313E-1,-2.4350628E-1,6.9190973E-1,8.8941455E-1,-9.1464534E-2,-7.684103E-2,1.0538478E0,1.5539236E-1,-9.597103E-1,9.8070467E-1,3.6087953E-2,-1.0775654E0,-2.1277629E-1,3.2628694E-1,1.0862701E0,-2.4268687E-1,-7.5465876E-1],"default_left":[true,true,true,true,true,true,true,false,false,true,false,true,true,false,true,false,false,true,true,true,true,true,true,true,true,false,true,false,true,true,true,true,true,true,false,false,false,false,false,false,false,false,false,false,false,false,false,false,false,false,false,false,false],"id":7,"leaf_child_counts":[0,0,0,0,0,0,0,0,0,0,0,0,0,0,0,0,0,0,0,0,0,0,0,0,0,0,0,0,0,0,0,0,0,0,0,0,0,0,0,0,0,0,0,0,0,0,0,0,0,0,0,0,0],"left_children":[1,3,5,7,9,11,13,-1,-1,15,-1,17,19,-1,21,-1,-1,23,25,27,29,31,33,35,37,-1,39,-1,41,43,45,47,49,51,-1,-1,-1,-1,-1,-1,-1,-1,-1,-1,-1,-1,-1,-1,-1,-1,-1,-1,-1],"loss_changes":[5.1948536E1,3.8738747E0,2.512131E1,1.7609229E0,9.4200134E-1,7.0075264E0,1.8593872E1,0E0,0E0,1.1165619E-1,0E0,5.5727615E0,8.011723E0,0E0,1.5635733E1,0E0,0E0,1.3553429E0,4.0317698E0,2.3076944E0,7.0840573E0,3.4848923E1,9.01951E0,1.8003368E0,9.730864E-1,0E0,2.5345237E0,0E0,1.7080393E0,3.13525E0,4.55303E0,1.0369718E1,8.309027E0,9.049189E0,0E0,0E0,0E0,0E0,0E0,0E0,0E0,0E0,0E0,0E0,0E0,0E0,0E0,0E0,0E0,0E0,0E0,0E0,0E0],"parents":[2147483647,0,0,1,1,2,2,3,3,4,4,5,5,6,6,9,9,11,11,12,12,14,14,17,17,18,18,19,19,20,20,21,21,22,22,23,23,24,24,26,26,28,28,29,29,30,30,31,31,32,32,33,33],"right_children":[2,4,6,8,10,12,14,-1,-1,16,-1,18,20,-1,22,-1,-1,24,26,28,30,32,34,36,38,-1,40,-1,42,44,46,48,50,52,-1,-1,-1,-1,-1,-1,-1,-1,-1,-1,-1,-1,-1,-1,-1,-1,-1,-1,-1],"split_conditions":[5.8518667E-3,2.2405203E3,2.0448972E3,2.834965E-3,4.779345E1,2.620155E1,5.0387497E0,-1.4508422E-1,2.3350218E-1,2.1811498E-2,-2.0020243E-2,2.9209565E3,1.6136774E-1,3.238637E-1,7.624829E-1,-8.3380245E-2,-3.0567256E-1,3.0823082E-1,1.5134934E-2,2.7616E0,8.546593E-1,1.983888E0,3.0674693E-1,2.3123865E3,1.3505691E-1,-2.276995E-1,2.7007543E-2,-7.9932496E-2,7.3037413E-3,1.4219801E-1,1.7564092E3,7.375117E-3,9.147159E0,1.252858E-1,3.1640923E-1,3.6693773E-1,1.6242939E-1,-7.3051885E-2,2.0757292E-1,2.6682436E-1,-2.7439361E-2,-2.3052309E-2,3.1615436E-1,4.661771E-2,-2.879131E-1,2.9421142E-1,1.08263865E-2,-3.2326964E-1,-6.383289E-2,9.7886086E-2,3.2588103E-1,-7.280606E-2,-2.2639763E-1],"split_indices":[13,0,0,9,17,16,16,0,0,8,0,1,8,0,8,0,0,12,12,17,15,14,5,1,4,0,5,0,12,7,1,8,15,13,0,0,0,0,0,0,0,0,0,0,0,0,0,0,0,0,0,0,0],"sum_hessian":[4.983275E2,6.7526024E1,4.308015E2,2.5036204E0,6.502241E1,9.80412E1,3.3276028E2,1.2173338E0,1.2862866E0,6.379846E1,1.2239498E0,4.0992523E1,5.704868E1,1.104777E1,3.2171252E2,1.1024075E0,6.269605E1,2.8940922E1,1.20515995E1,1.4432694E1,4.2615986E1,1.766727E2,1.4503984E2,2.6257019E1,2.6839027E0,2.6737845E0,9.377815E0,1.3524055E0,1.3080289E1,1.1374317E1,3.1241669E1,1.05707886E2,7.096481E1,1.4195718E2,3.0826547E0,1.8260462E1,7.9965587E0,1.6543077E0,1.029595E0,4.9632864E0,4.414529E0,1.3468851E0,1.1733404E1,3.1213112E0,8.253006E0,5.382785E0,2.5858883E1,1.5579371E1,9.012851E1,5.1084175E1,1.9880634E1,8.0548416E1,6.1408768E1],"tree_param":{"num_deleted":"0","num_feature":"18","num_nodes":"53","size_leaf_vector":"0"}},{"base_weights":[-1.0659704E-1,8.244107E-2,-5.894044E-1,1.7217132E-1,-4.560228E-1,-8.804319E-1,-2.6688617E-1,2.5623798E-1,-4.078568E-1,-6.3861495E-1,3.5784807E-2,-9.120945E-1,6.292895E-2,8.4540004E-1,-3.682737E-1,1.6267246E-1,1.0790685E0,-6.688869E-1,8.553755E-1,-7.883408E-1,-2.1771431E-1,7.118331E-1,-4.816374E-1,-3.7627444E-2,-9.255867E-1,4.9823952E-1,-4.2351088E-1,1.1040897E0,-2.1792345E-2,-6.5204227E-1,-2.4238344E-2,4.0463904E-1,-9.519299E-2,1.2282201E0,-3.0885106E-1,-1.0101369E-2,-8.5019445E-1,2.1513595E-1,1.0400984E0,8.402246E-2,-8.427926E-1,8.1593233E-1,-5.665327E-1,1.0799714E0,-4.514797E-1,1.3451733E-1,-6.1847824E-1,-9.8396623E-1,-6.308303E-1,3.3417624E-1,1.2389957E0,-7.7668893E-1,5.5366594E-1,1.1326749E0,-4.1476545E-1,-1.2176005E-1,6.7425317E-1,6.6630197E-1,-2.2867869E-1,1.7547484E-1,1.2890449E0,-1.9307185E-2,-4.469474E-1,3.8143447E-1,-5.4440665E-1,-9.289527E-1,3.122424E-1,-8.947317E-1,-2.8455043E-1,-7.415663E-1,-4.6312712E-2,-7.378144E-1,2.276491E-2,-7.822317E-1,7.050944E-2,2.561955E-1,-8.2636905E-1,-1.3414827E-1,9.364032E-1,1.2774541E0,1.4495175E-1,-7.8744555E-1,2.0006353E-1],"default_left":[true,true,true,true,true,true,true,true,true,true,true,true,true,true,true,true,true,true,true,true,true,true,true,false,true,false,false,true,false,true,true,true,true,true,true,true,true,false,false,false,true,false,true,false,false,false,true,false,true,false,false,true,true,true,true,false,false,false,false,false,false,false,false,false,false,false,false,false,false,false,false,false,false,false,false,false,false,false,false,false,false,false,false],"id":8,"leaf_child_counts":[0,0,0,0,0,0,0,0,0,0,0,0,0,0,0,0,0,0,0,0,0,0,0,0,0,0,0,0,0,0,0,0,0,0,0,0,0,0,0,0,0,0,0,0,0,0,0,0,0,0,0,0,0,0,0,0,0,0,0,0,0,0,0,0,0,0,0,0,0,0,0,0,0,0,0,0,0,0,0,0,0,0,0],"left_children":[1,3,5,7,9,11,13,15,17,19,21,23,25,27,29,31,33,35,37,39,41,43,45,-1,47,-1,-1,49,-1,51,53,55,57,59,61,63,65,-1,-1,-1,67,-1,69,-1,-1,-1,71,-1,73,-1,-1,75,77,79,81,-1,-1,-1,-1,-1,-1,-1,-1,-1,-1,-1,-1,-1,-1,-1,-1,-1,-1,-1,-1,-1,-1,-1,-1,-1,-1,-1,-1],"loss_changes":[4.203649E1,1.609443E1,1.1926342E1,1.3994438E1,4.299321E0,2.078743E0,7.403922E0,1.9026323E1,1.2589735E1,2.0202904E0,5.1842837E0,7.384491E-1,8.744425E-1,1.2707696E0,5.6793065E0,1.4085084E1,5.6141796E0,3.6661081E0,5.6627417E-1,1.2713594E0,4.250897E0,3.2301733E0,7.945179E-1,0E0,4.8921585E-1,0E0,0E0,3.2564163E-2,0E0,5.2285995E0,1.2852206E1,1.659259E1,1.1312489E1,1.248806E0,1.2143776E-1,1.8083987E0,2.497694E0,0E0,0E0,0E0,4.3778038E-1,0E0,7.34781E-1,0E0,0E0,0E0,5.587332E-1,0E0,1.4832907E0,0E0,0E0,1.7179699E0,1.0668521E0,8.422413E-1,5.0202045E0,0E0,0E0,0E0,0E0,0E0,0E0,0E0,0E0,0E0,0E0,0E0,0E0,0E0,0E0,0E0,0E0,0E0,0E0,0E0,0E0,0E0,0E0,0E0,0E0,0E0,0E0,0E0,0E0],"parents":[2147483647,0,0,1,1,2,2,3,3,4,4,5,5,6,6,7,7,8,8,9,9,10,10,11,11,12,12,13,13,14,14,15,15,16,16,17,17,18,18,19,19,20,20,21,21,22,22,24,24,27,27,29,29,30,30,31,31,32,32,33,33,34,34,35,35,36,36,40,40,42,42,46,46,48,48,51,51,52,52,53,53,54,54],"right_children":[2,4,6,8,10,12,14,16,18,20,22,24,26,28,30,32,34,36,38,40,42,44,46,-1,48,-1,-1,50,-1,52,54,56,58,60,62,64,66,-1,-1,-1,68,-1,70,-1,-1,-1,72,-1,74,-1,-1,76,78,80,82,-1,-1,-1,-1,-1,-1,-1,-1,-1,-1,-1,-1,-1,-1,-1,-1,-1,-1,-1,-1,-1,-1,-1,-1,-1,-1,-1,-1],"split_conditions":[4.1270703E3,4.3766133E3,1.3498539E0,2.7745363E-1,1.029817E1,5.445015E1,7.600505E-1,2.0393227E1,2.4934028E-1,3.568149E0,1.3278761E0,5.5113E0,4.723703E4,6.829928E3,9.484938E0,3.9437318E-1,3.9070338E-1,2.0162046E3,4.0380907E-1,1.8671564E3,5.972246E-1,6.715639E4,1.2204037E1,-1.1288233E-2,1.815085E1,1.4947186E-1,-1.2705328E-1,5.7861693E-3,-6.537704E-3,1.4119826E1,1.2819127E1,1.6733423E-2,1.057185E1,2.4131183E-1,7.924229E-2,4.23608E1,2.7534344E2,6.454079E-2,3.1202954E-1,2.520674E-2,3.7994382E3,2.447797E-1,1.8614952E1,3.2399145E-1,-1.3544391E-1,4.0355198E-2,2.2729498E1,-2.951899E-1,5.144141E0,1.00252874E-1,3.716987E-1,6.3192E0,3.7704914E0,4.0853786E0,6.0056335E1,-3.6528017E-2,2.0227596E-1,1.998906E-1,-6.860361E-2,5.2642453E-2,3.8671347E-1,-5.792156E-3,-1.3408422E-1,1.14430346E-1,-1.63322E-1,-2.786858E-1,9.367272E-2,-2.6841953E-1,-8.536513E-2,-2.224699E-1,-1.3893814E-2,-2.2134434E-1,6.829473E-3,-2.3466952E-1,2.1152833E-2,7.685865E-2,-2.4791072E-1,-4.0244482E-2,2.8092098E-1,3.8323626E-1,4.3485526E-2,-2.3623367E-1,6.001906E-2],"split_indices":[0,1,15,12,14,17,11,14,4,15,9,16,3,0,15,8,13,0,4,0,9,2,10,0,17,0,0,4,0,14,11,12,16,15,4,16,14,0,0,0,0,0,15,0,0,0,8,0,14,0,0,16,15,8,15,0,0,0,0,0,0,0,0,0,0,0,0,0,0,0,0,0,0,0,0,0,0,0,0,0,0,0,0],"sum_hessian":[4.5904562E2,3.3047922E2,1.285664E2,2.8385718E2,4.6622044E1,6.6673256E1,6.1893147E1,2.4841174E2,3.544545E1,3.3781548E1,1.2840495E1,6.45402E1,2.1330585E0,4.557387E0,5.733576E1,2.241239E2,2.4287832E1,2.9765337E1,5.6801143E0,2.4273731E1,9.507815E0,5.4040265E0,7.4364686E0,1.0382358E0,6.3501965E1,1.112888E0,1.0201706E0,3.2998428E0,1.257544E0,3.092928E1,2.6406479E1,1.15332825E2,1.08791084E2,2.2034931E1,2.2529008E0,6.6517487E0,2.3113588E1,1.7565722E0,3.923542E0,1.3942127E0,2.2879519E1,2.0610912E0,7.4467244E0,4.159398E0,1.2446285E0,1.354505E0,6.0819635E0,5.1052307E1,1.2449658E1,1.0104233E0,2.2894197E0,2.8353867E1,2.5754132E0,6.184599E0,2.022188E1,3.924962E1,7.6083206E1,1.5630771E1,9.316031E1,1.4157802E0,2.0619152E1,1.0955958E0,1.157305E0,4.0038567E0,2.647892E0,2.183506E1,1.2785273E0,2.0380539E1,2.4989808E0,5.253606E0,2.193119E0,5.0007224E0,1.0812414E0,1.0144401E1,2.3052573E0,1.1104258E0,2.724344E1,1.152953E0,1.4224601E0,5.1381264E0,1.0464727E0,1.2415462E1,7.806418E0],"tree_param":{"num_deleted":"0","num_feature":"18","num_nodes":"83","size_leaf_vector":"0"}},{"base_weights":[-8.3792515E-2,-8.745402E-1,6.5544923E-3,1.2427556E-1,-9.2910165E-1,1.0618014E0,-3.084799E-2,-4.5563444E-1,6.734189E-1,-9.462255E-1,-1.345903E-1,6.806722E-2,-4.1132468E-1,-3.4210196E-1,-9.5991987E-1,1.5264498E-1,-4.515747E-1,9.8352015E-1,-4.652311E-1,4.568532E-1,-2.6013006E-3,-9.219993E-1,-9.246443E-2,-3.1661493E-1,-8.094474E-1,-7.6200074E-1,5.678531E-1,-1.1490654E-1,3.7950435E-1,-1.0602143E0,-3.9483005E-1,4.1956967E-1,-4.9696854E-1,-7.716786E-1,-1.19974494E-1,-8.7737554E-1,7.7477396E-2],"default_left":[true,true,true,true,true,false,true,false,false,true,false,true,true,false,false,true,true,false,true,true,true,true,true,true,true,false,false,false,false,false,false,false,false,false,false,false,false],"id":9,"leaf_child_counts":[0,0,0,0,0,0,0,0,0,0,0,0,0,0,0,0,0,0,0,0,0,0,0,0,0,0,0,0,0,0,0,0,0,0,0,0,0],"left_children":[1,3,5,7,9,-1,11,-1,-1,13,-1,15,17,-1,-1,19,21,-1,23,25,27,29,31,33,35,-1,-1,-1,-1,-1,-1,-1,-1,-1,-1,-1,-1],"loss_changes":[3.0300415E1,2.485485E0,1.5092438E1,1.3050618E0,4.3527603E-1,0E0,1.3932949E1,0E0,0E0,5.1460266E-3,0E0,1.2994359E1,6.200385E0,0E0,0E0,1.1981481E1,6.911891E0,0E0,3.540184E0,1.20300045E1,7.29382E0,8.7975025E-1,5.303689E0,4.6926928E0,1.3775682E0,0E0,0E0,0E0,0E0,0E0,0E0,0E0,0E0,0E0,0E0,0E0,0E0],"parents":[2147483647,0,0,1,1,2,2,3,3,4,4,6,6,9,9,11,11,12,12,15,15,16,16,18,18,19,19,20,20,21,21,22,22,23,23,24,24],"right_children":[2,4,6,8,10,-1,12,-1,-1,14,-1,16,18,-1,-1,20,22,-1,24,26,28,30,32,34,36,-1,-1,-1,-1,-1,-1,-1,-1,-1,-1,-1,-1],"split_conditions":[5.559452E-3,2.2405203E3,5.0387497E0,2.834965E-3,4.779345E1,3.1854045E-1,6.0471008E4,-1.3669033E-1,2.0202567E-1,3.668628E-2,-4.037709E-2,6.209494E4,5.995E-2,-1.0263059E-1,-2.8797597E-1,2.6643349E1,3.073604E4,2.9505605E-1,6.121801E3,8.2184905E-3,4.078515E1,6.2939434E0,8.188258E4,4.123093E4,3.9253067E1,-2.2860023E-1,1.7035593E-1,-3.4471963E-2,1.1385131E-1,-3.180643E-1,-1.1844902E-1,1.2587091E-1,-1.4909057E-1,-2.3150359E-1,-3.599235E-2,-2.6321268E-1,2.3243219E-2],"split_indices":[13,0,16,9,17,0,3,0,0,8,0,2,17,0,0,16,3,0,1,8,17,15,2,2,14,0,0,0,0,0,0,0,0,0,0,0,0],"sum_hessian":[4.2304773E2,4.248908E1,3.8055865E2,2.1346123E0,4.0354465E1,1.2089366E1,3.6846927E2,1.1210427E0,1.0135696E0,3.9316143E1,1.0383224E0,2.9309293E2,7.537634E1,1.4473588E0,3.7868786E1,2.5267361E2,4.0419315E1,2.1630046E0,7.321334E1,8.47201E1,1.679535E2,1.6819187E1,2.3600128E1,5.2476364E1,2.0736975E1,6.5818667E0,7.813824E1,1.3034338E2,3.7610134E1,1.2524362E1,4.2948256E0,1.039922E1,1.3200908E1,1.4951473E1,3.752489E1,1.927175E1,1.4652258E0],"tree_param":{"num_deleted":"0","num_feature":"18","num_nodes":"37","size_leaf_vector":"0"}},{"base_weights":[-6.804801E-2,-6.3909286E-1,2.9591609E-2,-9.6996826E-1,-2.3199279E-2,1.1698687E-1,-3.2283667E-1,-9.890157E-1,-1.7346671E-1,3.3204967E-1,-7.084945E-1,-1.02370866E-1,4.8971555E-1,-4.761879E-1,7.3052514E-1,-1.0050771E0,-2.957809E-1,6.409274E-1,-3.0670363E-1,-8.1754345E-1,-2.0059201E-1,4.9981818E-2,-8.963698E-1,9.159275E-1,1.7309637E-1,-7.4553263E-1,4.340681E-5,1.7223327E-1,1.1597434E0,-1.6993877E-1,9.3665636E-1,5.8463943E-1,-9.003338E-1,-2.1549247E-1,4.828631E-1,-6.161195E-1,-1.1438465E0,1.3106753E0,5.198202E-1,-8.4500283E-1,6.8437946E-1,-8.413374E-1,4.1441208E-1,1.3685676E0,-4.4026005E-1,8.9110774E-1,-4.139702E-1,2.1851614E-1,-5.8074737E-1,1.8831438E-1,1.1440347E0,7.2659873E-3,-8.887322E-1,1.0478114E0,-1.495232E-1,-1.0981528E0,2.3518472E-3,3.4018543E-1,1.3624179E0,1.6515793E-1,9.890328E-1,-4.9550366E-1,-1.2306843E0,1.1836174E0,3.1502756E-1,-5.319476E-1,-1.0589731E0,1.0161728E0,-3.9453363E-1,3.099876E-1,-8.464146E-1,6.491638E-2,-6.4075595E-1],"default_left":[true,true,true,true,true,true,true,true,false,true,true,true,true,true,true,false,false,true,true,false,false,true,true,true,true,true,true,true,false,true,true,false,false,true,true,true,false,true,true,true,true,true,true,false,true,false,true,false,false,false,false,false,false,false,false,false,false,false,false,false,false,false,false,false,false,false,false,false,false,false,false,false,false],"id":10,"leaf_child_counts":[0,0,0,0,0,0,0,0,0,0,0,0,0,0,0,0,0,0,0,0,0,0,0,0,0,0,0,0,0,0,0,0,0,0,0,0,0,0,0,0,0,0,0,0,0,0,0,0,0,0,0,0,0,0,0,0,0,0,0,0,0,0,0,0,0,0,0,0,0,0,0,0,0],"left_children":[1,3,5,7,9,11,13,15,-1,17,19,21,23,25,27,-1,-1,29,31,-1,-1,33,35,37,39,41,43,45,-1,47,49,-1,-1,51,53,55,-1,57,59,61,63,65,67,-1,69,-1,71,-1,-1,-1,-1,-1,-1,-1,-1,-1,-1,-1,-1,-1,-1,-1,-1,-1,-1,-1,-1,-1,-1,-1,-1,-1,-1],"loss_changes":[2.2390968E1,1.1925974E1,1.0621209E1,4.0673065E-1,5.473209E0,2.2621744E1,1.1419996E1,1.14852905E-1,0E0,3.1265955E0,2.6052332E-1,2.1167849E1,1.3666964E1,7.75247E0,1.9821353E0,0E0,0E0,2.6372094E0,3.445537E0,0E0,0E0,1.7049145E1,1.2486019E0,6.110317E0,3.1818996E1,4.6387157E0,1.4361334E1,2.5315428E0,0E0,7.026834E-1,9.83531E-1,0E0,0E0,1.3817352E1,2.0292702E1,4.5862675E0,0E0,5.959587E-1,3.7203002E0,2.1550264E0,7.096018E0,1.8599949E0,2.1607838E0,0E0,5.75707E0,0E0,4.22759E-1,0E0,0E0,0E0,0E0,0E0,0E0,0E0,0E0,0E0,0E0,0E0,0E0,0E0,0E0,0E0,0E0,0E0,0E0,0E0,0E0,0E0,0E0,0E0,0E0,0E0,0E0],"parents":[2147483647,0,0,1,1,2,2,3,3,4,4,5,5,6,6,7,7,9,9,10,10,11,11,12,12,13,13,14,14,17,17,18,18,21,21,22,22,23,23,24,24,25,25,26,26,27,27,29,29,30,30,33,33,34,34,35,35,37,37,38,38,39,39,40,40,41,41,42,42,44,44,46,46],"right_children":[2,4,6,8,10,12,14,16,-1,18,20,22,24,26,28,-1,-1,30,32,-1,-1,34,36,38,40,42,44,46,-1,48,50,-1,-1,52,54,56,-1,58,60,62,64,66,68,-1,70,-1,72,-1,-1,-1,-1,-1,-1,-1,-1,-1,-1,-1,-1,-1,-1,-1,-1,-1,-1,-1,-1,-1,-1,-1,-1,-1,-1],"split_conditions":[2.5140865E-2,1.076575E1,1.8488926E-1,4.2167068E-1,4.8055125E4,3.6649847E0,1.9609632E-1,6.522055E1,-5.2040014E-2,5.231835E1,1.0156717E-2,1.5773876E0,4.0126104E0,6.2308624E1,1.322584E1,-3.0152315E-1,-8.873427E-2,8.630049E-2,5.7322776E-1,-2.4526304E-1,-6.0177606E-2,1.2423334E0,2.381853E0,1.9503036E0,9.780055E0,1.5298585E1,6.5259285E1,4.090266E0,3.4792304E-1,4.361165E-2,4.428176E-3,1.7539184E-1,-2.7010015E-1,4.593529E-1,1.3306334E0,2.1898675E0,-3.4315395E-1,3.7805328E0,6.4033594E0,6.4489884E0,9.987666E0,2.2143684E3,2.4178867E1,4.105703E-1,2.3828712E0,2.6733235E-1,2.3955952E1,6.555484E-2,-1.7422421E-1,5.6494314E-2,3.4321043E-1,2.1797963E-3,-2.6661968E-1,3.1434342E-1,-4.485696E-2,-3.2944584E-1,7.055542E-4,1.0205563E-1,4.087254E-1,4.954738E-2,2.9670987E-1,-1.4865111E-1,-3.692053E-1,3.5508522E-1,9.4508275E-2,-1.5958428E-1,-3.1769192E-1,3.0485183E-1,-1.18360095E-1,9.2996284E-2,-2.539244E-1,1.9474914E-2,-1.922268E-1],"split_indices":[9,17,13,11,2,15,5,16,0,16,13,11,11,15,9,0,0,15,7,0,0,15,11,7,15,9,11,9,0,7,4,0,0,11,7,15,0,15,15,11,11,1,10,0,8,0,10,0,0,0,0,0,0,0,0,0,0,0,0,0,0,0,0,0,0,0,0,0,0,0,0,0,0],"sum_hessian":[4.00245E2,5.763303E1,3.4261197E2,3.7117546E1,2.0515488E1,2.7506845E2,6.75435E1,3.60146E1,1.1029474E0,1.385084E1,6.664647E0,1.7361699E2,1.0145147E2,5.9438255E1,8.105247E0,3.4759426E1,1.2551724E0,9.333902E0,4.516937E0,4.9847517E0,1.6798953E0,1.4645268E2,2.7164318E1,4.2435177E1,5.901629E1,3.7604557E1,2.1833696E1,4.1319795E0,3.9732668E0,2.6080866E0,6.7258162E0,1.811737E0,2.7051997E0,9.109115E1,5.5361526E1,1.4375105E1,1.2789214E1,2.0097637E1,2.2337542E1,1.9511349E1,3.950494E1,3.4989315E1,2.6152406E0,4.8015566E0,1.703214E1,1.6223371E0,2.5096424E0,1.5811017E0,1.026985E0,1.8734369E0,4.8523793E0,6.918781E1,2.1903337E1,2.8892883E1,2.6468645E1,7.6427746E0,6.7323303E0,1.4006932E0,1.8696943E1,1.3491643E1,8.845899E0,1.1434402E1,8.076947E0,1.5861296E1,2.3643644E1,1.5871165E1,1.911815E1,1.3527694E0,1.2624711E0,6.065233E0,1.09669075E1,1.0359206E0,1.4737217E0],"tree_param":{"num_deleted":"0","num_feature":"18","num_nodes":"73","size_leaf_vector":"0"}},{"base_weights":[-5.566746E-2,4.007622E-2,-5.361186E-1,9.359656E-1,9.173831E-3,-8.0413336E-1,-2.637745E-1,1.0041814E0,2.8923213E-1,-3.1985995E-1,9.530322E-2,-8.4899485E-1,-2.0934762E-1,7.852028E-1,-3.5631105E-1,-1.9166699E-1,-1.0087999E0,1.9829625E-1,-2.694358E-1,-9.0927947E-1,-4.2900437E-1,2.7891076E-1,-5.4934597E-1,4.871671E-2,-4.9568355E-1,7.791334E-2,-6.7631763E-1,-1.0641459E0,-3.1146765E-1,7.1599126E-2,6.700691E-1,-3.681216E-1,1.1507804E0,-2.8277153E-1,-9.355672E-1,-6.5450233E-1,2.7572733E-1,-6.127944E-1,6.18333E-1,-5.5916154E-1,3.6423483E-1,2.3678279E-1,-4.1886485E-1,-8.372606E-1,2.6621374E-1,1.7500044E-1,-7.2771E-1,8.082492E-1,-2.3797292E-1,8.688016E-1,-4.4418544E-1,3.927658E-2,9.6869075E-1,-6.144494E-1,2.5182924E-1],"default_left":[true,true,true,true,true,true,true,false,false,true,true,true,true,false,true,true,true,true,true,true,true,false,false,true,true,true,true,false,false,true,true,true,false,false,false,false,false,false,true,true,false,false,false,false,false,false,false,false,false,false,false,false,false,false,false],"id":11,"leaf_child_counts":[0,0,0,0,0,0,0,0,0,0,0,0,0,0,0,0,0,0,0,0,0,0,0,0,0,0,0,0,0,0,0,0,0,0,0,0,0,0,0,0,0,0,0,0,0,0,0,0,0,0,0,0,0,0,0],"left_children":[1,3,5,7,9,11,13,-1,-1,15,17,19,21,-1,23,25,27,29,31,33,35,-1,-1,37,39,41,43,-1,-1,45,47,49,-1,-1,-1,-1,-1,-1,51,53,-1,-1,-1,-1,-1,-1,-1,-1,-1,-1,-1,-1,-1,-1,-1],"loss_changes":[1.6901905E1,8.488476E0,4.243799E0,1.6060543E-1,8.466983E0,6.302128E-1,3.3633358E0,0E0,0E0,5.2813387E0,8.945396E0,3.1450844E-1,7.2609806E-1,0E0,1.7108362E0,7.042405E0,3.4830093E-2,1.1019432E1,7.7881727E0,1.2153053E-1,1.0364357E0,0E0,0E0,3.6043787E0,1.4219947E0,2.8830738E0,3.1392012E0,0E0,0E0,1.2283508E1,5.0957108E0,5.079752E0,0E0,0E0,0E0,0E0,0E0,0E0,9.960604E-1,1.1043859E0,0E0,0E0,0E0,0E0,0E0,0E0,0E0,0E0,0E0,0E0,0E0,0E0,0E0,0E0,0E0],"parents":[2147483647,0,0,1,1,2,2,3,3,4,4,5,5,6,6,9,9,10,10,11,11,12,12,14,14,15,15,16,16,17,17,18,18,19,19,20,20,23,23,24,24,25,25,26,26,29,29,30,30,31,31,38,38,39,39],"right_children":[2,4,6,8,10,12,14,-1,-1,16,18,20,22,-1,24,26,28,30,32,34,36,-1,-1,38,40,42,44,-1,-1,46,48,50,-1,-1,-1,-1,-1,-1,52,54,-1,-1,-1,-1,-1,-1,-1,-1,-1,-1,-1,-1,-1,-1,-1],"split_conditions":[4.977247E3,5.3384E0,1.4240918E0,5.0579004E0,6.045402E-1,3.7579903E1,7.9299545E-1,3.0125442E-1,8.676964E-2,2.9120803E-1,1.8488926E-1,8.41939E0,8.0479266E4,2.3556085E-1,2.3920974E-1,6.09684E4,9.3723464E-1,8.467094E0,3.7510307E1,2.8446166E-2,9.451739E-3,8.367323E-2,-1.648038E-1,2.757857E-1,1.8421398E1,1.6268659E-1,2.156837E-1,-3.192438E-1,-9.3440294E-2,3.3762841E0,8.3909854E-2,1.2084585E0,3.4523416E-1,-8.483146E-2,-2.8067017E-1,-1.9635071E-1,8.27182E-2,-1.8383832E-1,7.640662E0,1.0774039E2,1.0927045E-1,7.103484E-2,-1.2565947E-1,-2.511782E-1,7.986413E-2,5.2500136E-2,-2.1831301E-1,2.4247476E-1,-7.139188E-2,2.606405E-1,-1.3325563E-1,1.1782975E-2,2.9060724E-1,-1.8433481E-1,7.5548775E-2],"split_indices":[0,16,15,16,15,17,11,0,0,11,13,14,2,0,8,2,9,15,7,8,13,0,0,14,8,11,9,0,0,11,5,9,0,0,0,0,0,0,15,15,0,0,0,0,0,0,0,0,0,0,0,0,0,0,0],"sum_hessian":[3.6596432E2,3.0591797E2,6.004635E1,9.22379E0,2.9669418E2,2.927958E1,3.076677E1,7.8437543E0,1.3800356E0,6.0988934E1,2.3570526E2,2.6828644E1,2.4509356E0,1.8873042E0,2.8879465E1,5.249858E1,8.490352E0,1.841596E2,5.1545654E1,2.2442316E1,4.3863287E0,1.0798603E0,1.3710752E0,7.559988E0,2.1319477E1,3.4273598E1,1.8224985E1,7.378693E0,1.1116583E0,1.4608063E2,3.807897E1,4.888931E1,2.6563463E0,1.3771793E0,2.1065136E1,3.3770306E0,1.0092978E0,3.4627724E0,4.0972157E0,2.0179598E1,1.1398797E0,2.6365337E1,7.908261E0,1.566225E1,2.5627348E0,1.3003937E2,1.6041271E1,3.314506E1,4.9339075E0,2.2284844E0,4.6660824E1,1.9637377E0,2.1334777E0,1.911857E1,1.0610266E0],"tree_param":{"num_deleted":"0","num_feature":"18","num_nodes":"55","size_leaf_vector":"0"}},{"base_weights":[-4.404482E-2,-5.452562E-1,2.839374E-2,-8.9426845E-1,-1.8288605E-2,-7.782833E-1,6.632162E-2,-9.229002E-1,-1.4276506E-1,4.0117297E-1,-4.383995E-1,3.3735397E-1,-9.447382E-1,4.0755272E-1,-3.4478173E-2,-3.0476514E-1,-9.5531195E-1,8.544942E-1,-2.9335836E-1,-7.38041E-1,2.658569E-1,-1.8158665E-1,-1.011972E0,8.3100224E-1,1.5950793E-1,2.1176572E-1,-1.7127687E-1,1.0898796E0,-3.1124678E-2,-6.7865425E-1,1.9655892E-1,-4.304694E-2,-8.4834915E-1,6.7569494E-1,-3.6722186E-1,-4.9910486E-1,9.1482145E-1,-4.1438568E-1,4.30815E-1,3.4000605E-1,-4.0529242E-1,-4.0250325E-1,3.259288E-2,-9.95941E-1,-3.9544868E-1,-2.5487587E-1,9.8369014E-1,8.50227E-2,-7.2638804E-1,-1.0602919E-2,7.415068E-1,5.7900757E-1,6.513809E-2,3.7256765E-1,-4.931933E-1,-1.5470695E-1,-1.0559617E0,4.0802038E-1,-3.1574526E-1],"default_left":[true,true,true,true,true,true,true,true,false,true,true,false,true,true,true,false,false,true,true,true,true,false,false,true,true,true,true,false,false,false,false,false,true,false,false,false,true,true,true,true,true,true,true,false,false,false,false,false,false,false,false,false,false,false,false,false,false,false,false],"id":12,"leaf_child_counts":[0,0,0,0,0,0,0,0,0,0,0,0,0,0,0,0,0,0,0,0,0,0,0,0,0,0,0,0,0,0,0,0,0,0,0,0,0,0,0,0,0,0,0,0,0,0,0,0,0,0,0,0,0,0,0,0,0,0,0],"left_children":[1,3,5,7,9,11,13,15,-1,17,19,-1,21,23,25,-1,-1,27,29,31,33,-1,-1,35,37,39,41,-1,-1,-1,-1,-1,43,-1,-1,-1,45,47,49,51,53,55,57,-1,-1,-1,-1,-1,-1,-1,-1,-1,-1,-1,-1,-1,-1,-1,-1],"loss_changes":[1.2585694E1,8.033548E0,9.335862E0,4.3433952E-1,3.4288175E0,2.8638306E0,1.0014541E1,2.1294785E-1,0E0,3.323275E0,2.2432456E0,0E0,4.416542E-1,6.83953E0,7.627932E0,0E0,0E0,1.3181496E0,1.0014371E0,5.0548506E-1,1.190111E0,0E0,0E0,3.1637955E0,6.888733E0,6.542241E0,6.8688235E0,0E0,0E0,0E0,0E0,0E0,1.0433674E-2,0E0,0E0,0E0,2.1192722E0,2.2967343E0,4.0883393E0,4.4000187E0,1.1671214E0,1.0883E1,1.035725E1,0E0,0E0,0E0,0E0,0E0,0E0,0E0,0E0,0E0,0E0,0E0,0E0,0E0,0E0,0E0,0E0],"parents":[2147483647,0,0,1,1,2,2,3,3,4,4,5,5,6,6,7,7,9,9,10,10,12,12,13,13,14,14,17,17,18,18,19,19,20,20,23,23,24,24,25,25,26,26,32,32,36,36,37,37,38,38,39,39,40,40,41,41,42,42],"right_children":[2,4,6,8,10,12,14,16,-1,18,20,-1,22,24,26,-1,-1,28,30,32,34,-1,-1,36,38,40,42,-1,-1,-1,-1,-1,44,-1,-1,-1,46,48,50,52,54,56,58,-1,-1,-1,-1,-1,-1,-1,-1,-1,-1,-1,-1,-1,-1,-1,-1],"split_conditions":[2.5140865E-2,1.076575E1,7.3979353E-3,6.4162796E1,2.9915637E-1,1.3966725E4,1.676138E-1,5.2237682E-2,-4.282952E-2,3.4966772E3,9.233097E0,1.012062E-1,9.347381E-2,1.7471004E-1,2.263665E1,-9.142955E-2,-2.865936E-1,3.6363394E3,1.6821368E-2,2.0100999E3,2.5593107E0,-5.4475997E-2,-3.035916E-1,1.5427732E3,1.9503384E0,5.0474746E3,4.2117715E0,3.269639E-1,-9.337404E-3,-2.0359628E-1,5.896768E-2,-1.2914083E-2,2.9884474E0,2.027085E-1,-1.10166565E-1,-1.4973146E-1,5.9605964E-2,5.2775276E-1,5.6500226E-1,1.5778259E0,5.32785E0,1.7843748E0,4.906811E0,-2.9878232E-1,-1.1863461E-1,-7.646276E-2,2.9510707E-1,2.5506811E-2,-2.1791641E-1,-3.180876E-3,2.2245206E-1,1.7370227E-1,1.9541427E-2,1.117703E-1,-1.47958E-1,-4.6412088E-2,-3.1678852E-1,1.2240612E-1,-9.472358E-2],"split_indices":[9,17,8,16,8,3,8,8,0,1,14,0,9,9,16,0,0,0,12,0,8,0,0,1,15,0,14,0,0,0,0,0,14,0,0,0,14,11,14,8,16,10,11,0,0,0,0,0,0,0,0,0,0,0,0,0,0,0,0],"sum_hessian":[3.452198E2,4.276895E1,3.0245084E2,2.5309431E1,1.7459522E1,1.2705304E1,2.8974554E2,2.4160849E1,1.1485828E0,8.759069E0,8.700453E0,1.5162411E0,1.1189063E1,6.5379E1,2.2436653E2,1.7220471E0,2.24388E1,5.160493E0,3.5985763E0,6.0699053E0,2.6305478E0,1.2055881E0,9.983475E0,2.3282345E1,4.2096653E1,7.993388E1,1.4443265E2,3.8946943E0,1.2657986E0,1.7987249E0,1.7998514E0,1.0218713E0,5.0480337E0,1.5559514E0,1.0745964E0,1.0864943E0,2.219585E1,1.3343626E1,2.8753027E1,6.6551735E1,1.338215E1,6.72192E1,7.7213455E1,2.9029784E0,2.1450555E0,1.0839887E0,2.1111862E1,5.410604E0,7.9330215E0,1.22766905E1,1.6476336E1,3.5006554E1,3.1545181E1,1.0298868E0,1.23522625E1,4.963427E1,1.7584932E1,3.707928E1,4.013417E1],"tree_param":{"num_deleted":"0","num_feature":"18","num_nodes":"59","size_leaf_vector":"0"}},{"base_weights":[-3.8150433E-2,-4.393851E-1,3.542455E-2,-1.3668567E-1,-7.3540926E-1,3.4268582E-1,-6.293742E-2,4.7620602E-2,-6.3479275E-1,-7.9235405E-1,-3.661012E-2,1.3842325E0,1.504521E-1,-8.874073E-2,1.0943074E0,2.7984443E-1,-5.3400683E-1,-8.645971E-1,-3.3146717E-2,-8.1945604E-1,-1.5155396E-1,4.6052822E-1,1.4646479E0,-7.2076505E-1,2.812543E-1,3.7435403E-1,-1.43091E-1,-1.6523938E-1,1.0390077E0,-4.5079596E-2,-8.6445236E-1,3.074029E-1,-3.6156636E-1,-8.4278774E-1,-1.8530151E-1,-3.2319018E-1,-9.7394896E-1,1.3273822E0,9.115137E-2,-6.698414E-1,5.0221103E-1,-3.782386E-1,-4.5085207E-2,-3.031819E-1,5.26732E-1,1.3652856E0,2.459786E-1,-4.0025344E-1,3.3247465E-1,-2.4368742E-1,-8.727941E-1,-7.484509E-1,5.277672E-1,-6.563522E-1,3.312344E-1,6.7072E-1,-3.5832903E-1,-2.3051262E-1,-8.881272E-1,3.3072597E-1,-2.0142935E-1],"default_left":[true,true,true,true,true,true,true,true,true,true,false,true,true,true,false,true,true,false,true,true,false,false,false,true,true,true,true,true,true,true,false,false,false,true,false,true,false,false,true,false,true,true,true,false,false,false,false,false,false,false,false,false,false,false,false,false,false,false,false,false,false],"id":13,"leaf_child_counts":[0,0,0,0,0,0,0,0,0,0,0,0,0,0,0,0,0,0,0,0,0,0,0,0,0,0,0,0,0,0,0,0,0,0,0,0,0,0,0,0,0,0,0,0,0,0,0,0,0,0,0,0,0,0,0,0,0,0,0,0,0],"left_children":[1,3,5,7,9,11,13,15,17,19,-1,21,23,25,-1,27,29,-1,31,33,-1,-1,-1,35,37,39,41,43,45,47,-1,-1,-1,49,-1,51,-1,-1,53,-1,55,57,59,-1,-1,-1,-1,-1,-1,-1,-1,-1,-1,-1,-1,-1,-1,-1,-1,-1,-1],"loss_changes":[9.72011E0,4.4706945E0,8.445307E0,2.4585545E0,9.8823166E-1,1.3355446E1,6.4269066E0,2.8828611E0,9.68714E-1,2.8547192E-1,0E0,1.0046196E-1,6.8476415E0,5.2958035E0,0E0,5.2802734E0,9.4954014E-1,0E0,4.5044068E-1,1.753254E-1,0E0,0E0,0E0,4.796834E-1,1.0104656E1,3.294033E0,4.295409E0,1.1518168E0,1.1455355E0,6.0543287E-1,0E0,0E0,0E0,1.7071533E-1,0E0,2.0478103E0,0E0,0E0,8.218774E0,0E0,3.1851926E0,3.9314961E0,7.8936634E0,0E0,0E0,0E0,0E0,0E0,0E0,0E0,0E0,0E0,0E0,0E0,0E0,0E0,0E0,0E0,0E0,0E0,0E0],"parents":[2147483647,0,0,1,1,2,2,3,3,4,4,5,5,6,6,7,7,8,8,9,9,11,11,12,12,13,13,15,15,16,16,18,18,19,19,23,23,24,24,25,25,26,26,27,27,28,28,29,29,33,33,35,35,38,38,40,40,41,41,42,42],"right_children":[2,4,6,8,10,12,14,16,18,20,-1,22,24,26,-1,28,30,-1,32,34,-1,-1,-1,36,38,40,42,44,46,48,-1,-1,-1,50,-1,52,-1,-1,54,-1,56,58,60,-1,-1,-1,-1,-1,-1,-1,-1,-1,-1,-1,-1,-1,-1,-1,-1,-1,-1],"split_conditions":[3.492861E-1,3.150692E3,3.2463554E-1,1.1482203E-1,5.85064E1,3.2979685E-1,3.765939E1,1.6577697E-1,3.6694273E-2,5.441765E1,-1.0983036E-2,3.9372808E-1,7.729683E-1,1.7661226E3,3.2829225E-1,1.1801392E-1,6.3545016E4,-2.5937915E-1,3.262185E1,4.584578E-1,-4.546619E-2,1.3815847E-1,4.3939438E-1,5.177015E-1,7.876324E-1,5.700931E-1,1.8401103E0,3.461155E1,1.2105623E-1,1.0261871E-2,-2.5933573E-1,9.222087E-2,-1.0846991E-1,4.2612888E-2,-5.5590454E-2,5.240966E-1,-2.921847E-1,3.9821467E-1,1.9989793E0,-2.0095243E-1,6.86351E0,7.252932E-1,1.9823875E0,-9.095457E-2,1.5801962E-1,4.095857E-1,7.379358E-2,-1.2007604E-1,9.97424E-2,-7.310623E-2,-2.6183823E-1,-2.2453527E-1,1.5833016E-1,-1.9690567E-1,9.937032E-2,2.01216E-1,-1.0749871E-1,-6.9153786E-2,-2.664382E-1,9.9217795E-2,-6.042881E-2],"split_indices":[15,0,7,11,16,11,7,7,12,17,0,15,15,0,0,15,2,0,16,9,0,0,0,11,11,15,15,17,7,13,0,0,0,8,0,15,0,0,15,0,6,11,11,0,0,0,0,0,0,0,0,0,0,0,0,0,0,0,0,0,0],"sum_hessian":[3.277355E2,5.001441E1,2.777211E2,2.5451117E1,2.4563292E1,6.674388E1,2.1097722E2,1.9237413E1,6.213703E0,2.2588673E1,1.9746195E0,9.433142E0,5.7310738E1,2.072788E2,3.698417E0,1.4119031E1,5.1183834E0,4.1800437E0,2.0336592E0,2.1404585E1,1.1840874E0,1.2941813E0,8.138961E0,6.8924885E0,5.041825E1,2.115327E1,1.8612552E2,9.393897E0,4.7251334E0,2.522505E0,2.5958784E0,1.0298088E0,1.0038506E0,2.0327698E1,1.0768874E0,3.5672836E0,3.3252048E0,6.8331714E0,4.358508E1,1.8451468E0,1.9308125E1,5.3912548E1,1.3221298E2,8.300979E0,1.0929185E0,2.8364975E0,1.8886359E0,1.268797E0,1.253708E0,1.4046168E0,1.8923082E1,2.458916E0,1.1083678E0,1.0174063E1,3.341102E1,1.633084E1,2.9772847E0,4.292757E1,1.0984978E1,3.8515717E1,9.3697266E1],"tree_param":{"num_deleted":"0","num_feature":"18","num_nodes":"61","size_leaf_vector":"0"}},{"base_weights":[-2.8501397E-2,-1.7245178E-1,1.5713446E-1,-1.0062371E-1,-9.4489247E-1,6.692864E-1,-5.591025E-2,-4.9467263E-1,1.2827653E-2,-1.0225374E0,9.8110904E-5,9.8606294E-1,2.1609302E-1,-6.8729585E-1,1.2906139E-1,9.836194E-1,-6.191728E-1,-9.361571E-2,6.008808E-1,5.5393016E-1,1.2752172E0,-3.0506366E-1,6.1923057E-1,-2.9417798E-1,-1.0632951E0,1.0291584E0,-7.4042425E-2,-9.1543186E-1,-1.1571531E-1,3.2800204E-1,-2.7851292E-1,7.991469E-1,-4.6166867E-1,1.0045516E0,-4.6809328E-1,-6.345356E-1,6.7071366E-1,1.0028918E0,2.2410254E-1,-7.369651E-1,6.2211525E-1,-1.1458411E0,-1.23761125E-1,1.128088E0,1.4943661E-1,-8.4481263E-1,2.1571368E-1,-9.404394E-1,-2.5743854E-1,7.176195E-1,-2.5902003E-1,5.916143E-1,-1.7439479E-1,9.656012E-3,-4.3852645E-1,-2.1324845E-2,1.0400054E0,-4.713937E-3,-6.3688517E-1,1.1973128E0,2.6744533E-1,-7.65804E-1,-1.145496E-2,3.671614E-1,-9.407055E-1,-2.997187E-1,6.0300875E-1,-8.32131E-1,-1.5815161E-3,1.1305707E0,-2.6282087E-1,-9.711938E-1,5.215724E-1,1.1356251E0,-1.4286543E-1],"default_left":[true,true,true,true,true,true,true,true,true,false,false,true,true,true,true,false,true,true,true,true,false,true,true,true,true,true,true,true,true,true,true,true,true,true,true,true,false,false,true,true,true,false,false,false,false,true,true,false,false,false,false,false,false,false,false,false,false,false,false,false,false,false,false,false,false,false,false,false,false,false,false,false,false,false,false],"id":14,"leaf_child_counts":[0,0,0,0,0,0,0,0,0,0,0,0,0,0,0,0,0,0,0,0,0,0,0,0,0,0,0,0,0,0,0,0,0,0,0,0,0,0,0,0,0,0,0,0,0,0,0,0,0,0,0,0,0,0,0,0,0,0,0,0,0,0,0,0,0,0,0,0,0,0,0,0,0,0,0],"left_children":[1,3,5,7,9,11,13,15,17,-1,-1,19,21,23,25,-1,27,29,31,33,-1,35,37,39,41,43,45,47,49,51,53,55,57,59,61,63,-1,-1,65,67,69,-1,-1,-1,-1,71,73,-1,-1,-1,-1,-1,-1,-1,-1,-1,-1,-1,-1,-1,-1,-1,-1,-1,-1,-1,-1,-1,-1,-1,-1,-1,-1,-1,-1],"loss_changes":[8.424455E0,9.751566E0,1.5070005E1,7.315319E0,1.0992098E0,5.6085167E0,1.1559854E1,7.340356E0,8.06321E0,0E0,0E0,2.2409248E0,3.963116E0,3.0001602E0,1.4117769E1,0E0,5.0169916E0,8.60241E0,4.5276084E0,5.6393003E0,0E0,3.1599088E0,1.3607788E0,5.464983E0,7.17E-1,1.0679379E0,1.4386472E1,1.1131096E-1,1.8420715E0,4.571929E0,3.5287476E0,3.382146E0,2.9628938E-1,8.3170605E-1,5.508591E-1,2.4529912E0,0E0,0E0,1.4589862E0,6.129427E-1,2.3500464E0,0E0,0E0,0E0,0E0,3.5424032E0,1.5672374E1,0E0,0E0,0E0,0E0,0E0,0E0,0E0,0E0,0E0,0E0,0E0,0E0,0E0,0E0,0E0,0E0,0E0,0E0,0E0,0E0,0E0,0E0,0E0,0E0,0E0,0E0,0E0,0E0],"parents":[2147483647,0,0,1,1,2,2,3,3,4,4,5,5,6,6,7,7,8,8,11,11,12,12,13,13,14,14,16,16,17,17,18,18,19,19,21,21,22,22,23,23,24,24,25,25,26,26,27,27,28,28,29,29,30,30,31,31,32,32,33,33,34,34,35,35,38,38,39,39,40,40,45,45,46,46],"right_children":[2,4,6,8,10,12,14,16,18,-1,-1,20,22,24,26,-1,28,30,32,34,-1,36,38,40,42,44,46,48,50,52,54,56,58,60,62,64,-1,-1,66,68,70,-1,-1,-1,-1,72,74,-1,-1,-1,-1,-1,-1,-1,-1,-1,-1,-1,-1,-1,-1,-1,-1,-1,-1,-1,-1,-1,-1,-1,-1,-1,-1,-1,-1],"split_conditions":[3.4736357E0,1.964782E0,4.046114E0,3.8498E0,3.474979E0,3.0594082E0,1.0117383E1,1.5E-3,9.21533E0,-3.067612E-1,2.9433273E-5,4.514085E0,3.8874336E-2,6.456053E0,1.0342968E1,2.9508582E-1,1.02842614E-1,1.3741723E-1,3.7320966E-1,2.6758122E0,3.8256517E-1,6.4040184E0,2.0792658E0,7.129038E0,6.1656713E0,1.4673711E1,2.5370695E1,4.1899776E-1,6.17968E-2,2.0328477E-1,2.60977E1,2.6552537E-1,3.4687004E1,2.0888581E0,7.126891E-3,1.3040941E0,2.012141E-1,3.0086756E-1,2.0097366E3,4.0567694E0,3.8655667E0,-3.4375235E-1,-3.712834E-2,3.384264E-1,4.4830985E-2,1.5410749E1,2.7872803E1,-2.8213182E-1,-7.723156E-2,2.1528585E-1,-7.770601E-2,1.774843E-1,-5.231844E-2,2.8968037E-3,-1.3155794E-1,-6.3974536E-3,3.1200165E-1,-1.4141812E-3,-1.9106556E-1,3.5919386E-1,8.02336E-2,-2.297412E-1,-3.4364883E-3,1.1014842E-1,-2.8221166E-1,-8.991562E-2,1.8090263E-1,-2.4963932E-1,-4.7445486E-4,3.391712E-1,-7.884626E-2,-2.9135814E-1,1.5647173E-1,3.4068754E-1,-4.2859633E-2],"split_indices":[15,11,11,17,9,7,15,17,14,0,0,15,5,11,11,0,9,8,12,11,0,15,11,15,9,7,15,11,7,9,16,15,10,11,4,11,0,0,1,8,7,0,0,0,0,9,11,0,0,0,0,0,0,0,0,0,0,0,0,0,0,0,0,0,0,0,0,0,0,0,0,0,0,0,0],"sum_hessian":[3.1324466E2,1.7647165E2,1.3677301E2,1.6249202E2,1.3979614E1,3.955138E1,9.7221634E1,3.5573814E1,1.2691821E2,1.2842364E1,1.1372498E0,2.2587313E1,1.6964066E1,2.1413322E1,7.580831E1,2.2272556E0,3.334656E1,1.0817778E2,1.874043E1,1.0223809E1,1.2363503E1,7.5051055E0,9.458961E0,1.1339717E1,1.0073605E1,1.3207843E1,6.2600468E1,2.0478008E1,1.2868553E1,3.274225E1,7.543553E1,1.600237E1,2.7380607E0,7.1072426E0,3.1165667E0,5.8720994E0,1.633006E0,4.0187206E0,5.44024E0,7.777196E0,3.5625212E0,9.058183E0,1.0154219E0,1.1618907E1,1.5889355E0,1.6580269E1,4.60202E1,1.9314684E1,1.1633239E0,1.3001826E0,1.156837E1,2.1357952E1,1.1384298E1,2.7268053E1,4.8167477E1,3.8384297E0,1.2163941E1,1.0435208E0,1.69454E0,5.138997E0,1.9682455E0,1.476741E0,1.6398257E0,1.3280163E0,4.544083E0,2.3711789E0,3.0690613E0,6.769584E0,1.0076115E0,2.0862544E0,1.4762669E0,1.5441281E1,1.1389877E0,1.2299532E1,3.3720665E1],"tree_param":{"num_deleted":"0","num_feature":"18","num_nodes":"75","size_leaf_vector":"0"}},{"base_weights":[-1.792394E-2,-1.8971743E-1,1.052142E-1,-3.0717034E-2,-8.7149227E-1,6.0276574E-1,-8.023159E-2,-2.8085017E-1,3.3843452E-1,-5.64557E-1,-1.204816E0,1.2177854E0,1.247524E-1,-6.7258644E-1,9.334282E-2,-1.10685706E-1,-8.9214915E-1,1.0251421E0,-2.0226209E-1,-1.0321796E0,1.8798811E-2,1.3061787E0,4.1120076E-1,-1.0061748E-1,8.528857E-1,-7.6943016E-1,4.0958366E-1,7.0114887E-1,-1.4921021E-1,-6.896397E-1,6.698663E-2,-9.9776876E-1,-7.090927E-2,3.7419114E-1,1.351379E0,-5.83921E-1,2.6064714E-2,6.784807E-1,-3.812783E-1,1.343347E0,3.4444323E-1,8.4543544E-1,-1.3681261E-1,2.2700804E-1,-5.52528E-1,-1.6697878E-2,1.1454276E0,-2.0717117E-1,-9.154275E-1,1.3466234E0,3.5015315E-2,-9.23045E-1,1.20370224E-1,2.1154895E-1,-8.216519E-1,5.8829576E-1,-7.312367E-2,1.0255624E0,-5.258889E-1,3.604107E-1,1.410811E0,-2.4973279E-1,-9.298443E-1,7.2045183E-1,-1.7349781E-1,1.4693607E-1,8.6659145E-1,-6.581439E-1,1.331292E-1,-4.230598E-1,4.2306107E-1,-8.461791E-1,3.829747E-1,-6.744822E-1,4.405679E-1,-9.851271E-1,1.8650696E-1,-1.7716177E-1,8.4817046E-1,-1.0115045E0,6.1547766E-3,4.88119E-1,-5.388967E-1],"default_left":[true,true,true,true,true,true,true,true,true,true,false,true,true,true,true,true,true,true,true,false,true,true,true,true,true,true,false,true,true,true,true,false,false,true,true,true,true,true,true,false,false,false,false,true,true,false,false,true,true,false,true,true,true,false,false,false,false,false,false,false,false,false,false,false,false,false,false,false,false,false,false,false,false,false,false,false,false,false,false,false,false,false,false],"id":15,"leaf_child_counts":[0,0,0,0,0,0,0,0,0,0,0,0,0,0,0,0,0,0,0,0,0,0,0,0,0,0,0,0,0,0,0,0,0,0,0,0,0,0,0,0,0,0,0,0,0,0,0,0,0,0,0,0,0,0,0,0,0,0,0,0,0,0,0,0,0,0,0,0,0,0,0,0,0,0,0,0,0,0,0,0,0,0,0],"left_children":[1,3,5,7,9,11,13,15,17,19,-1,21,23,25,27,29,31,33,35,-1,37,39,41,43,45,47,-1,49,51,53,55,-1,-1,57,59,61,63,65,67,-1,-1,-1,-1,69,71,-1,-1,73,75,-1,77,79,81,-1,-1,-1,-1,-1,-1,-1,-1,-1,-1,-1,-1,-1,-1,-1,-1,-1,-1,-1,-1,-1,-1,-1,-1,-1,-1,-1,-1,-1,-1],"loss_changes":[6.1650476E0,1.3159281E1,1.5720094E1,9.29854E0,1.6695347E0,1.3440403E1,1.2875324E1,6.138455E0,1.532373E1,3.7944236E0,0E0,8.9634895E-1,4.5376544E0,3.287508E0,1.444207E1,4.988396E0,1.0494738E0,3.3379612E0,2.072904E0,0E0,2.1429553E0,1.685772E-1,9.3550444E-1,3.3251293E0,1.677165E0,1.97581E0,0E0,1.1955672E1,1.4784164E1,1.5265751E0,2.7948406E0,0E0,0E0,4.8927503E0,1.7906189E-1,7.9450035E-1,2.3049557E0,1.781373E-1,8.117469E-1,0E0,0E0,0E0,0E0,1.8660301E0,2.8992183E0,0E0,0E0,2.3343906E0,1.7696915E0,0E0,2.6976295E0,1.5094271E0,1.3124524E1,0E0,0E0,0E0,0E0,0E0,0E0,0E0,0E0,0E0,0E0,0E0,0E0,0E0,0E0,0E0,0E0,0E0,0E0,0E0,0E0,0E0,0E0,0E0,0E0,0E0,0E0,0E0,0E0,0E0,0E0],"parents":[2147483647,0,0,1,1,2,2,3,3,4,4,5,5,6,6,7,7,8,8,9,9,11,11,12,12,13,13,14,14,15,15,16,16,17,17,18,18,20,20,21,21,22,22,23,23,24,24,25,25,27,27,28,28,29,29,30,30,33,33,34,34,35,35,36,36,37,37,38,38,43,43,44,44,47,47,48,48,50,50,51,51,52,52],"right_children":[2,4,6,8,10,12,14,16,18,20,-1,22,24,26,28,30,32,34,36,-1,38,40,42,44,46,48,-1,50,52,54,56,-1,-1,58,60,62,64,66,68,-1,-1,-1,-1,70,72,-1,-1,74,76,-1,78,80,82,-1,-1,-1,-1,-1,-1,-1,-1,-1,-1,-1,-1,-1,-1,-1,-1,-1,-1,-1,-1,-1,-1,-1,-1,-1,-1,-1,-1,-1,-1],"split_conditions":[1.9920017E0,7.9505706E-1,2.1073277E0,6.608316E-1,1.3037536E0,1.6065844E0,6.116319E0,2.5779063E-1,6.694765E-1,1.2495868E0,-3.614448E-1,1.8935962E0,7.017898E-2,1.3619827E1,6.8191776E0,8.199836E-3,1.0908506E0,8.540152E-1,2.0243663E-2,-3.0965388E-1,6.0722584E-1,5.945385E3,4.740634E4,9.913961E-1,2.9931955E0,2.5188282E0,1.228751E-1,3.4477715E0,1.5212547E1,1.390527E4,1.8314836E4,-2.9933065E-1,-2.1272782E-2,4.5462385E-1,1.0991064E4,5.1408005E-1,5.2855897E-1,2.711302E-1,6.4090276E-1,4.030041E-1,1.03332974E-1,2.5363064E-1,-4.1043784E-2,7.151165E-3,3.3750527E-2,-5.0093634E-3,3.436283E-1,3.2971869E0,5.336048E0,4.0398705E-1,1.5700888E1,7.304701E0,3.990062E-1,6.3464686E-2,-2.4649557E-1,1.7648873E-1,-2.1937102E-2,3.0766875E-1,-1.5776668E-1,1.0812321E-1,4.232433E-1,-7.491984E-2,-2.789533E-1,2.1613556E-1,-5.2049346E-2,4.4080824E-2,2.5997746E-1,-1.9744317E-1,3.993876E-2,-1.2691794E-1,1.2691833E-1,-2.5385374E-1,1.14892416E-1,-2.0234467E-1,1.3217038E-1,-2.9553813E-1,5.595209E-2,-5.3148534E-2,2.5445116E-1,-3.0345136E-1,1.846433E-3,1.4643571E-1,-1.6166902E-1],"split_indices":[14,10,10,14,10,6,14,10,6,14,0,10,13,15,10,8,9,14,13,0,6,0,2,7,14,10,0,6,14,3,3,0,0,10,3,7,11,9,11,0,0,0,0,13,5,0,0,14,8,0,14,9,12,0,0,0,0,0,0,0,0,0,0,0,0,0,0,0,0,0,0,0,0,0,0,0,0,0,0,0,0,0,0],"sum_hessian":[2.8948834E2,1.2063975E2,1.688486E2,9.867279E1,2.1966959E1,4.5234352E1,1.2361424E2,5.8960793E1,3.9711998E1,1.2838537E1,9.128423E0,1.910542E1,2.6128931E1,2.7361872E1,9.625237E1,4.7045906E1,1.1914885E1,1.7099257E1,2.2612743E1,6.6991024E0,6.1394343E0,1.6660236E1,2.4451842E0,2.0611217E1,5.5177145E0,2.5379635E1,1.9822369E0,2.6915346E1,6.933703E1,1.0370759E1,3.6675148E1,1.0366673E1,1.5482111E0,6.425414E0,1.0673841E1,7.8813334E0,1.473141E1,2.0550368E0,4.084398E0,1.5658293E1,1.0019429E0,1.0614138E0,1.3837705E0,1.2237186E1,8.37403E0,1.6263359E0,3.8913784E0,5.73031E0,1.9649324E1,1.3150822E1,1.3764524E1,1.7287886E1,5.204914E1,1.2480925E0,9.122666E0,7.091386E0,2.9583763E1,3.646846E0,2.7785678E0,1.0036265E0,9.670216E0,4.884482E0,2.996851E0,2.705911E0,1.2025499E1,1.0027319E0,1.0523047E0,2.4736192E0,1.6107785E0,2.5671637E0,9.670023E0,6.4461026E0,1.9279276E0,3.3047864E0,2.4255235E0,1.8580097E1,1.0692261E0,1.1536444E1,2.228081E0,1.57042675E1,1.5836176E0,3.3578285E1,1.8470858E1],"tree_param":{"num_deleted":"0","num_feature":"18","num_nodes":"83","size_leaf_vector":"0"}},{"base_weights":[-1.2264981E-2,-7.5023866E-1,1.5087855E-2,-8.2366264E-1,-1.631943E-1,9.133177E-1,-5.7496647E-3,-2.2341082E-2,1.0704911E0,2.1019682E-2,-5.306361E-1,-2.2539878E-2,1.1489766E0,-6.7330825E-1,3.72221E-1,1.0562142E-1,-2.113731E-1,1.360144E0,3.3107066E-1,-6.5734774E-2,-8.55991E-1,8.979085E-1,-3.0037865E-1],"default_left":[true,true,true,false,false,false,true,true,false,true,true,true,true,true,true,false,false,false,false,false,false,false,false],"id":16,"leaf_child_counts":[0,0,0,0,0,0,0,0,0,0,0,0,0,0,0,0,0,0,0,0,0,0,0],"left_children":[1,3,5,-1,-1,-1,7,9,-1,11,13,15,17,19,21,-1,-1,-1,-1,-1,-1,-1,-1],"loss_changes":[5.447872E0,2.8133392E-1,4.8844023E0,0E0,0E0,0E0,4.590952E0,5.5842433E0,0E0,1.1520559E1,2.8157058E0,5.497355E0,1.0554199E0,1.891882E0,1.4582078E0,0E0,0E0,0E0,0E0,0E0,0E0,0E0,0E0],"parents":[2147483647,0,0,1,1,2,2,6,6,7,7,9,9,10,10,11,11,12,12,13,13,14,14],"right_children":[2,4,6,-1,-1,-1,8,10,-1,12,14,16,18,20,22,-1,-1,-1,-1,-1,-1,-1,-1],"split_conditions":[3.3079865E-3,2.316535E1,5.0387497E0,-2.470988E-1,-4.895829E-2,2.739953E-1,4.083463E-1,3.585548E-1,3.2114732E-1,6.307644E1,2.1362368E1,2.9220154E3,2.8974682E-1,2.1431098E4,5.2283325E1,3.168643E-2,-6.3411936E-2,4.0804324E-1,9.93212E-2,-1.9720433E-2,-2.567973E-1,2.6937255E-1,-9.0113595E-2],"split_indices":[13,17,16,0,0,0,4,12,0,14,9,1,12,2,10,0,0,0,0,0,0,0,0],"sum_hessian":[2.683273E2,8.645495E0,2.5968182E2,7.3261213E0,1.3193741E0,4.9165545E0,2.5476526E2,2.5186177E2,2.903481E0,2.3294846E2,1.8913322E1,2.252305E2,7.7179585E0,1.6551977E1,2.3613455E0,1.34432E2,9.0798485E1,5.6073027E0,2.1106558E0,4.140655E0,1.2411323E1,1.1373996E0,1.223946E0],"tree_param":{"num_deleted":"0","num_feature":"18","num_nodes":"23","size_leaf_vector":"0"}},{"base_weights":[-6.579575E-3,3.537278E-2,-4.2631298E-1,-1.6321378E-3,4.7421852E-1,-6.5953743E-1,-5.9131235E-2,9.736005E-1,-2.0153489E-2,-1.5139493E-1,6.959123E-1,-7.4016607E-1,-1.1782482E-1,3.0134425E-1,-3.5151395E-1,-2.109175E-1,6.0028233E-2,3.8557088E-1,-6.394379E-1,1.7232586E-1,9.367909E-1,-1.9664797E-1,-7.946189E-1,-3.6392745E-1,1.9323814E-1,-3.3227465E-1,5.9821296E-1,-4.7986758E-1,1.5648608E-1,-9.037472E-3,-5.568615E-1,4.958625E-1,-1.0314858E-1,6.2703395E-1,-8.695403E-2,6.3244313E-1,-6.161198E-1,-7.067707E-2,8.992341E-1,-6.9171228E-3,-6.694398E-1,-7.1322995E-1,1.3126056E-1,-6.618402E-1,4.5217633E-1,1.1163882E0,1.0880611E-1,-7.264647E-1,3.133072E-2,8.1494236E-1,6.300056E-2],"default_left":[true,true,true,true,true,true,true,false,true,true,true,true,true,true,true,true,true,true,false,true,false,false,false,false,false,false,true,true,false,true,true,true,true,false,false,true,false,false,false,false,false,false,false,false,false,false,false,false,false,false,false],"id":17,"leaf_child_counts":[0,0,0,0,0,0,0,0,0,0,0,0,0,0,0,0,0,0,0,0,0,0,0,0,0,0,0,0,0,0,0,0,0,0,0,0,0,0,0,0,0,0,0,0,0,0,0,0,0,0,0],"left_children":[1,3,5,7,9,11,13,-1,15,17,19,21,23,25,27,29,31,33,-1,35,-1,-1,-1,-1,-1,-1,37,39,-1,41,43,45,47,-1,-1,49,-1,-1,-1,-1,-1,-1,-1,-1,-1,-1,-1,-1,-1,-1,-1],"loss_changes":[4.6238604E0,3.879924E0,2.0042338E0,4.016745E0,2.6822348E0,5.458083E-1,1.1985339E0,0E0,3.3494034E0,1.7357337E0,1.5912609E0,2.1150064E-1,3.0511332E-1,1.1733465E0,4.7840947E-1,4.5190554E0,1.1029582E1,4.3441057E-1,0E0,2.4227636E0,0E0,0E0,0E0,0E0,0E0,0E0,8.458389E-1,4.601382E-1,0E0,4.235517E0,2.8261933E0,1.0019814E1,9.506947E0,0E0,0E0,3.67723E-1,0E0,0E0,0E0,0E0,0E0,0E0,0E0,0E0,0E0,0E0,0E0,0E0,0E0,0E0,0E0],"parents":[2147483647,0,0,1,1,2,2,3,3,4,4,5,5,6,6,8,8,9,9,10,10,11,11,12,12,13,13,14,14,15,15,16,16,17,17,19,19,26,26,27,27,29,29,30,30,31,31,32,32,35,35],"right_children":[2,4,6,8,10,12,14,-1,16,18,20,22,24,26,28,30,32,34,-1,36,-1,-1,-1,-1,-1,-1,38,40,-1,42,44,46,48,-1,-1,50,-1,-1,-1,-1,-1,-1,-1,-1,-1,-1,-1,-1,-1,-1,-1],"split_conditions":[6.037756E3,5.834875E1,3.5014577E-2,1.1999999E-3,1.666288E-2,9.891871E0,9.3316895E-1,2.9208016E-1,1.0723467E0,5.279705E1,2.4877176E-2,4.786764E-2,9.770406E-3,3.7104225E-1,2.45523E1,2.5779063E-1,1.3202598E0,9.421629E-2,-1.9183138E-1,1.344151E0,2.8103727E-1,-5.8994394E-2,-2.3838568E-1,-1.0917824E-1,5.7971444E-2,-9.96824E-2,6.7092466E0,1.2987358E1,4.6945825E-2,5.6527294E-3,6.7673407E0,9.2874116E-1,3.4703417E0,1.8811019E-1,-2.608621E-2,3.510228E3,-1.8483594E-1,-2.1203123E-2,2.6977023E-1,-2.0751369E-3,-2.0083195E-1,-2.1396899E-1,3.937817E-2,-1.9855207E-1,1.356529E-1,3.3491647E-1,3.2641836E-2,-2.1793942E-1,9.399217E-3,2.4448271E-1,1.8900169E-2],"split_indices":[0,17,13,17,12,14,8,0,14,16,13,8,13,14,17,10,10,8,0,15,0,0,0,0,0,0,15,11,0,8,15,6,14,0,0,0,0,0,0,0,0,0,0,0,0,0,0,0,0,0,0],"sum_hessian":[2.6073157E2,2.37872E2,2.2859581E1,2.202925E2,1.7579508E1,1.3492975E1,9.366607E0,3.1446774E0,2.1714781E2,4.682559E0,1.2896949E1,1.1425983E1,2.0669918E0,4.181111E0,5.185496E0,6.3778637E1,1.5336919E2,2.329504E0,2.3530548E0,4.60427E0,8.292679E0,1.4604021E0,9.965581E0,1.0591108E0,1.0078809E0,1.2959175E0,2.8851933E0,4.1837816E0,1.0017146E0,4.0923397E1,2.2855242E1,4.1223957E1,1.1214522E2,1.3252879E0,1.0042161E0,3.0324616E0,1.5718082E0,1.132937E0,1.7522564E0,1.4937121E0,2.6900694E0,6.1203055E0,3.480309E1,2.1013155E1,1.8420868E0,1.5112084E1,2.6111874E1,1.9120234E1,9.302499E1,1.9699833E0,1.0624782E0],"tree_param":{"num_deleted":"0","num_feature":"18","num_nodes":"51","size_leaf_vector":"0"}},{"base_weights":[-4.9290466E-3,-6.53896E-1,1.8837072E-2,-7.6428276E-1,-1.1786571E-1,8.624161E-1,2.137622E-3,-2.372421E-2,5.6319696E-1,-4.1540563E-2,7.6488507E-1,9.040594E-1,1.3258128E-1,-2.6929989E-3,-5.539349E-1,2.8229973E-1,9.672443E-1,2.3627175E-1,1.0827549E0,5.526641E-1,-2.6100934E-1,-3.4315627E-2,1.0450851E0,-6.4595175E-1,3.1275788E-1,1.4534524E-1,6.98223E-1,1.8592581E-1,-4.9972072E-1],"default_left":[true,true,true,false,false,false,true,true,true,true,true,true,true,true,true,false,false,false,false,true,true,false,false,false,false,false,false,false,false],"id":18,"leaf_child_counts":[0,0,0,0,0,0,0,0,0,0,0,0,0,0,0,0,0,0,0,0,0,0,0,0,0,0,0,0,0],"left_children":[1,3,5,-1,-1,-1,7,9,11,13,15,17,19,21,23,-1,-1,-1,-1,25,27,-1,-1,-1,-1,-1,-1,-1,-1],"loss_changes":[3.8957453E0,4.3790197E-1,3.4335508E0,0E0,0E0,0E0,3.4976997E0,3.2704957E0,1.4391766E0,4.504414E0,2.2930765E-1,4.311347E-1,1.1139362E0,7.0409346E0,1.4738741E0,0E0,0E0,0E0,0E0,8.573252E-2,4.8841417E-1,0E0,0E0,0E0,0E0,0E0,0E0,0E0,0E0],"parents":[2147483647,0,0,1,1,2,2,6,6,7,7,8,8,9,9,10,10,11,11,12,12,13,13,14,14,19,19,20,20],"right_children":[2,4,6,-1,-1,-1,8,10,12,14,16,18,20,22,24,-1,-1,-1,-1,26,28,-1,-1,-1,-1,-1,-1,-1,-1],"split_conditions":[6.0906135E-3,6.923687E-3,5.0387497E0,-2.2928484E-1,-3.5359714E-2,2.5872484E-1,7.578955E1,2.3194087E-1,2.3493875E4,3.585548E-1,1.1268362E1,8.0470245E1,1.6147541E0,7.1682335E1,2.014759E-1,8.468992E-2,2.9017332E-1,7.088153E-2,3.2482648E-1,9.710634E-3,3.2099546E3,-1.0294689E-2,3.1352553E-1,-1.9378553E-1,9.382737E-2,4.3603573E-2,2.094669E-1,5.5777747E-2,-1.4991622E-1],"split_indices":[9,13,16,0,0,0,16,4,3,12,8,16,11,14,5,0,0,0,0,5,1,0,0,0,0,0,0,0,0],"sum_hessian":[2.5078764E2,7.9230814E0,2.4286456E2,6.2169757E0,1.706106E0,3.7313359E0,2.3913322E2,2.2951169E2,9.621545E0,2.2536748E2,4.1442046E0,4.75677E0,4.8647747E0,2.1041962E2,1.4947867E1,1.9319481E0,2.2122567E0,1.4943957E0,3.2623746E0,2.157691E0,2.7070835E0,2.0519397E2,5.22564E0,1.3743421E1,1.204447E0,1.0942296E0,1.0634615E0,1.0194716E0,1.6876117E0],"tree_param":{"num_deleted":"0","num_feature":"18","num_nodes":"29","size_leaf_vector":"0"}},{"base_weights":[1.0228724E-3,3.24493E-2,-4.3655592E-1,-9.6951015E-2,1.3409719E-1,-1.309521E-1,-6.818248E-1,2.7947938E-2,-7.995038E-1,5.7447517E-1,-4.5819048E-2,-6.006981E-1,2.1643364E-1,-7.660451E-1,-2.1152476E-2,-1.3712405E-1,2.8013608E-1,-9.406127E-1,-3.060639E-1,1.199076E0,2.1169223E-1,-5.6878996E-1,8.599886E-2,5.3747696E-1,-4.1785714E-1,-2.0764625E-1,-8.2386214E-1,-1.3789468E-2,-5.82723E-1,8.445751E-1,-1.3270739E-1,-2.8287667E-1,-9.77656E-1,-5.674584E-1,1.5688029E-1,1.2536267E0,2.5587946E-1,5.574073E-3,8.6378956E-1,-7.090049E-1,7.789372E-2,6.141265E-1,-1.2611604E-1,7.217071E-1,1.0358129E-2,-2.0453414E-1,3.6982885E-1,-7.004255E-1,2.3522997E-1,1.2059146E0,1.8943673E-1,-2.5818944E-1,3.594694E-1,1.6508007E-1,-5.377562E-1,1.1037399E0,1.4771376E-3,-2.814286E-1,-8.9787024E-1,-3.1829086E-1,5.211119E-1,1.1215179E0,-1.4415541E-1,-6.259248E-1,1.564696E-1],"default_left":[true,true,true,true,true,true,true,true,true,true,true,false,true,true,false,true,true,true,true,true,true,true,true,true,false,false,false,true,true,true,true,false,false,false,false,false,false,true,true,true,true,true,true,false,false,false,false,false,false,false,false,false,false,false,false,false,false,false,false,false,false,false,false,false,false],"id":19,"leaf_child_counts":[0,0,0,0,0,0,0,0,0,0,0,0,0,0,0,0,0,0,0,0,0,0,0,0,0,0,0,0,0,0,0,0,0,0,0,0,0,0,0,0,0,0,0,0,0,0,0,0,0,0,0,0,0,0,0,0,0,0,0,0,0,0,0,0,0],"left_children":[1,3,5,7,9,11,13,15,17,19,21,-1,23,25,-1,27,29,31,33,35,37,39,41,43,-1,-1,-1,45,47,49,51,-1,-1,-1,-1,-1,-1,53,55,57,59,61,63,-1,-1,-1,-1,-1,-1,-1,-1,-1,-1,-1,-1,-1,-1,-1,-1,-1,-1,-1,-1,-1,-1],"loss_changes":[3.4081948E0,3.0540855E0,1.155503E0,8.998686E0,1.0319005E1,1.5385791E0,4.8320103E-1,3.6943662E0,7.8960705E-1,8.300876E0,6.4706426E0,0E0,1.3847623E0,8.501625E-2,0E0,2.9459481E0,8.2846775E0,4.887581E-3,6.84831E-1,3.8189507E-1,3.3683817E0,1.7675676E0,8.50939E0,4.0234447E-1,0E0,0E0,0E0,3.2310343E0,1.28423E0,3.3109894E0,1.3971839E0,0E0,0E0,0E0,0E0,0E0,0E0,1.8286088E0,1.2441764E0,1.0085726E0,9.14953E-1,8.525506E0,7.799776E0,0E0,0E0,0E0,0E0,0E0,0E0,0E0,0E0,0E0,0E0,0E0,0E0,0E0,0E0,0E0,0E0,0E0,0E0,0E0,0E0,0E0,0E0],"parents":[2147483647,0,0,1,1,2,2,3,3,4,4,5,5,6,6,7,7,8,8,9,9,10,10,12,12,13,13,15,15,16,16,17,17,18,18,19,19,20,20,21,21,22,22,23,23,27,27,28,28,29,29,30,30,37,37,38,38,39,39,40,40,41,41,42,42],"right_children":[2,4,6,8,10,12,14,16,18,20,22,-1,24,26,-1,28,30,32,34,36,38,40,42,44,-1,-1,-1,46,48,50,52,-1,-1,-1,-1,-1,-1,54,56,58,60,62,64,-1,-1,-1,-1,-1,-1,-1,-1,-1,-1,-1,-1,-1,-1,-1,-1,-1,-1,-1,-1,-1,-1],"split_conditions":[6.604563E3,2.1089187E0,8.133715E4,9.179585E-1,2.3012538E0,2.1628566E-2,2.6388004E1,7.2927845E-1,5.796894E-1,1.3801644E0,6.116319E0,-1.8020944E-1,1.6831684E1,4.3163466E-1,-6.345743E-3,2.5154763E-1,7.193837E-1,1.5935801E1,1.31126995E1,2.1605844E0,7.017898E-2,2.0427644E0,6.8191776E0,4.9344008E4,-1.2535715E-1,-6.2293876E-2,-2.4715865E-1,3.125215E-1,3.737248E0,5.98914E-1,6.108202E0,-8.486301E-2,-2.932968E-1,-1.7023753E-1,4.706409E-2,3.7608802E-1,7.676384E-2,4.8351803E0,3.845915E1,2.980186E0,4.3917513E0,5.619294E0,2.0471577E1,2.1651214E-1,3.1074388E-3,-6.1360244E-2,1.1094866E-1,-2.1012767E-1,7.056899E-2,3.6177438E-1,5.683102E-2,-7.745683E-2,1.0784083E-1,4.9524024E-2,-1.6132687E-1,3.3112198E-1,4.431413E-4,-8.4428586E-2,-2.6936108E-1,-9.548726E-2,1.5633358E-1,3.3645537E-1,-4.3246627E-2,-1.8777746E-1,4.694088E-2],"split_indices":[1,14,3,10,10,12,14,14,9,6,14,0,11,10,0,10,6,16,17,10,13,9,10,2,0,0,0,14,15,10,15,0,0,0,0,0,0,6,17,10,14,6,14,0,0,0,0,0,0,0,0,0,0,0,0,0,0,0,0,0,0,0,0,0,0],"sum_hessian":[2.4581085E2,2.3020372E2,1.5607134E1,1.0129669E2,1.2890703E2,7.631827E0,7.9753075E0,8.682184E1,1.4474858E1,3.6753376E1,9.215365E1,2.9345028E0,4.697324E0,6.932129E0,1.0431784E0,5.2750072E1,3.4071762E1,1.0551276E1,3.9235816E0,1.2656886E1,2.4096489E1,1.7884436E1,7.426921E1,3.220112E0,1.4772116E0,1.0812092E0,5.8509197E0,4.2122257E1,1.0627813E1,1.3951517E1,2.0120247E1,1.023022E0,9.5282545E0,2.3633766E0,1.560205E0,1.1653756E1,1.0031306E0,1.9075544E1,5.020945E0,1.4618467E1,3.2659683E0,2.07386E1,5.353061E1,2.112597E0,1.1075153E0,2.8445347E1,1.3676911E1,9.416478E0,1.2113354E0,8.450158E0,5.50136E0,1.6411497E1,3.7087498E0,1.52846E1,3.790945E0,3.7089121E0,1.3120327E0,5.241722E0,9.376745E0,1.8733128E0,1.3926555E0,1.2137784E1,8.600816E0,1.8895382E1,3.4635227E1],"tree_param":{"num_deleted":"0","num_feature":"18","num_nodes":"65","size_leaf_vector":"0"}},{"base_weights":[1.28508E-3,9.232159E-1,-1.3269792E-2,-3.3099768E-1,4.2515177E-2,-7.77556E-1,-9.560191E-2,1.03348374E-1,-3.0938125E-1,-8.2736063E-1,-1.9176608E-1,-3.956452E-1,1.0768461E-1,2.5606418E-1,-3.82394E-2,-7.377235E-1,-1.407088E-1,2.2118072E-1,-5.0068855E-1,-2.973395E-1,3.8886213E-1,-4.254745E-1,3.2321513E-1,-1.0238645E-1,5.851995E-1,-2.5381971E-2,-8.44317E-1,1.8329725E-1,-3.558234E-1,-6.378097E-1,-3.7945444E-3,2.628419E-1,-5.305372E-1,6.904345E-1,-8.234444E-2,5.385187E-1,-8.0189043E-1,7.194762E-1,2.3376276E-1,1.8907844E-1,-2.3530151E-1,9.1572744E-1,1.6213751E-1,-9.230011E-1,-2.0754512E-1,6.298289E-1,-2.223584E-1,-1.6111794E-1,-6.2931204E-1],"default_left":[true,false,true,true,true,true,true,true,true,false,false,true,true,true,true,true,true,false,true,true,true,true,true,true,true,false,true,true,true,false,false,false,false,false,false,false,false,false,false,false,false,false,false,false,false,false,false,false,false],"id":20,"leaf_child_counts":[0,0,0,0,0,0,0,0,0,0,0,0,0,0,0,0,0,0,0,0,0,0,0,0,0,0,0,0,0,0,0,0,0,0,0,0,0,0,0,0,0,0,0,0,0,0,0,0,0],"left_children":[1,-1,3,5,7,9,11,13,15,-1,-1,17,19,21,23,25,27,-1,29,31,33,35,37,39,41,-1,43,45,47,-1,-1,-1,-1,-1,-1,-1,-1,-1,-1,-1,-1,-1,-1,-1,-1,-1,-1,-1,-1],"loss_changes":[3.1539483E0,0E0,4.116878E0,3.5717287E0,4.2661004E0,1.8655348E-1,1.4975117E0,3.6724248E0,2.0205786E0,0E0,0E0,7.488134E-1,1.8244733E0,3.8730173E0,3.6098526E0,5.9144974E-1,1.6217165E0,0E0,5.9179354E-1,1.0166764E0,1.3769892E0,3.2449121E0,2.4856663E0,3.1954703E0,1.0303574E0,0E0,1.5865946E-1,1.8736556E0,6.3138723E-1,0E0,0E0,0E0,0E0,0E0,0E0,0E0,0E0,0E0,0E0,0E0,0E0,0E0,0E0,0E0,0E0,0E0,0E0,0E0,0E0],"parents":[2147483647,0,0,2,2,3,3,4,4,5,5,6,6,7,7,8,8,11,11,12,12,13,13,14,14,15,15,16,16,18,18,19,19,20,20,21,21,22,22,23,23,24,24,26,26,27,27,28,28],"right_children":[2,-1,4,6,8,10,12,14,16,-1,-1,18,20,22,24,26,28,-1,30,32,34,36,38,40,42,-1,44,46,48,-1,-1,-1,-1,-1,-1,-1,-1,-1,-1,-1,-1,-1,-1,-1,-1,-1,-1,-1,-1],"split_conditions":[1.1999999E-3,2.7696478E-1,3.3881001E0,7.790193E-2,6.685783E4,2.5358766E-1,3.4760465E4,3.2209503E1,3.43416E4,-2.482082E-1,-5.7529826E-2,1.7065137E4,5.2329195E4,1.2885507E-2,7.58018E1,1.8177655E3,2.8833994E3,6.635422E-2,1.4603279E0,5.4180855E4,3.535622E3,2.146279E4,1.1560133E-1,3.482566E-1,2.3493875E4,-7.6145916E-3,7.180724E3,1.39E1,1.07896445E5,-1.9134292E-1,-1.1383634E-3,7.885258E-2,-1.5916117E-1,2.0713036E-1,-2.4703333E-2,1.6155562E-1,-2.4056713E-1,2.1584287E-1,7.012883E-2,5.672353E-2,-7.059046E-2,2.7471825E-1,4.8641253E-2,-2.7690035E-1,-6.2263537E-2,1.8894868E-1,-6.670752E-2,-4.8335385E-2,-1.8879361E-1],"split_indices":[17,0,17,9,3,11,3,16,2,0,0,2,2,8,16,0,0,0,8,3,1,3,8,6,3,0,1,17,3,0,0,0,0,0,0,0,0,0,0,0,0,0,0,0,0,0,0,0,0],"sum_hessian":[2.3313031E2,2.6530256E0,2.3047728E2,3.3685467E1,1.9679181E2,1.0832483E1,2.2852983E1,1.6838841E2,2.8403406E1,9.603589E0,1.2288947E0,8.847767E0,1.4005216E1,8.0621735E1,8.776668E1,7.0715528E0,2.1331854E1,1.1266052E0,7.7211614E0,5.715215E0,8.290001E0,6.7524676E0,7.386926E1,8.033645E1,7.4302287E0,1.0815959E0,5.989957E0,8.570642E0,1.2761211E1,5.829014E0,1.8921479E0,1.6425073E0,4.072708E0,4.7711897E0,3.518811E0,1.775304E0,4.977164E0,1.2307168E1,6.1562096E1,2.5028894E1,5.5307552E1,3.5175388E0,3.91269E0,4.9311304E0,1.0588263E0,3.8167155E0,4.753927E0,8.382534E0,4.3786774E0],"tree_param":{"num_deleted":"0","num_feature":"18","num_nodes":"49","size_leaf_vector":"0"}},{"base_weights":[-7.032502E-4,-1.33433025E-2,9.222589E-1,2.1164287E-2,-5.085091E-1,-3.4873456E-2,6.7010903E-1,-6.6072863E-1,6.1821115E-1,2.3089992E-2,-8.4587705E-1,9.7841734E-1,-1.9125728E-2,3.704755E-2,-8.0355984E-1,-2.5466984E-2,1.0118254E0,-1.1460353E0,-4.4773597E-1,1.0642848E0,3.1757787E-2,9.252163E-1,-4.3929085E-1,-3.4874374E-1,4.3868297E-1,-8.708512E-1,-1.0369901E-1,1.9670732E-2,-7.417946E-1,1.1185659E0,1.4238052E-1,6.8745446E-1,-8.948989E-1,1.7513326E-1,1.1387584E0,-6.840458E-1,2.183946E-1],"default_left":[true,true,false,true,true,true,true,true,false,true,true,true,true,true,true,true,true,false,true,true,false,false,true,false,false,false,false,false,false,false,false,false,false,false,false,false,false],"id":21,"leaf_child_counts":[0,0,0,0,0,0,0,0,0,0,0,0,0,0,0,0,0,0,0,0,0,0,0,0,0,0,0,0,0,0,0,0,0,0,0,0,0],"left_children":[1,3,-1,5,7,9,11,13,-1,15,17,19,21,23,25,27,29,-1,31,33,-1,-1,35,-1,-1,-1,-1,-1,-1,-1,-1,-1,-1,-1,-1,-1,-1],"loss_changes":[2.67076E0,3.868694E0,0E0,7.734019E0,2.9381192E0,9.239277E0,3.610661E0,1.372973E0,0E0,8.860564E0,1.0534906E0,9.171305E-1,2.8685222E0,6.5593356E-1,4.3863058E-1,5.7175922E0,6.4245796E-1,0E0,4.308627E0,5.0875473E-1,0E0,0E0,9.498244E-1,0E0,0E0,0E0,0E0,0E0,0E0,0E0,0E0,0E0,0E0,0E0,0E0,0E0,0E0],"parents":[2147483647,0,0,1,1,3,3,4,4,5,5,6,6,7,7,9,9,10,10,11,11,12,12,13,13,14,14,15,15,16,16,18,18,19,19,22,22],"right_children":[2,4,-1,6,8,10,12,14,-1,16,18,20,22,24,26,28,30,-1,32,34,-1,-1,36,-1,-1,-1,-1,-1,-1,-1,-1,-1,-1,-1,-1,-1,-1],"split_conditions":[4.083463E-1,4.762029E-1,2.766777E-1,4.122509E1,3.08321E-1,1.5815954E1,2.8846413E1,2.3898949E1,1.8546335E-1,1.6228968E1,2.5801338E1,1.1328806E1,4.7236153E1,7.9225836E0,2.795476E2,7.174602E0,9.280938E-2,-3.4381062E-1,2.494649E1,1.653776E-2,9.527337E-3,2.775649E-1,1.1502053E2,-1.04623124E-1,1.316049E-1,-2.6125538E-1,-3.1109706E-2,5.90122E-3,-2.2253838E-1,3.355698E-1,4.2714156E-2,2.0623635E-1,-2.684697E-1,5.253998E-2,3.4162754E-1,-2.0521374E-1,6.551839E-2],"split_indices":[4,13,0,15,5,11,10,11,0,15,15,6,11,9,15,11,5,0,11,8,0,0,15,0,0,0,0,0,0,0,0,0,0,0,0,0,0],"sum_hessian":[2.2687483E2,2.2478197E2,2.092867E0,2.110326E2,1.3749383E1,1.9512904E2,1.59035425E1,1.2477287E1,1.2720951E0,1.8301991E2,1.2109135E1,1.0698377E1,5.2051654E0,2.2459111E0,1.0231377E1,1.7538115E2,7.6387568E0,5.8330994E0,6.2760353E0,9.694754E0,1.0036234E0,1.2326632E0,3.9725025E0,1.2127213E0,1.0331898E0,9.111033E0,1.120343E0,1.658999E2,9.4812565E0,6.5483027E0,1.0904543E0,1.6217104E0,4.6543245E0,1.0082865E0,8.686467E0,2.865892E0,1.1066103E0],"tree_param":{"num_deleted":"0","num_feature":"18","num_nodes":"37","size_leaf_vector":"0"}},{"base_weights":[1.0744412E-3,-1.14887744E-1,1.1406387E-1,-1.1341678E-2,-6.750046E-1,5.8022034E-1,-2.3056773E-2,-1.3796742E-1,2.819243E-1,-7.3120296E-1,4.0153455E-2,1.0975583E0,8.5601155E-3,-6.381614E-1,4.7364525E-2,-3.8397342E-2,-6.4905006E-1,9.484835E-1,-2.3148416E-1,-1.886855E-1,-7.806927E-1,1.1521658E0,2.2429903E-1,-4.7516868E-1,3.5434654E-1,-7.5054944E-1,1.9110449E-2,1.91988E-1,-2.614451E-1,-2.0032336E-1,2.3434736E-1,-7.206555E-1,-9.9897966E-2,1.0836716E0,3.0668116E-1,-4.5743093E-1,1.7422627E-1,-8.584525E-1,-4.221065E-1,1.2037944E0,2.8631097E-1,-5.2364025E-2,-8.528559E-1,-1.659266E-1,6.069503E-1,-1.7298773E-1,-8.156662E-1,-6.5509E-2,5.651813E-1,-6.025432E-1,6.270586E-2,2.4556066E-1,-3.2653293E-1,4.9123374E-1,-3.1439754E-1,-7.787694E-1,-1.5605085E-1,1.2436081E0,3.592722E-1,-1.4591293E-1,6.6185695E-1,-9.678204E-2,-7.2615343E-1,3.5809782E-1,-3.0887815E-1,7.991088E-2,-6.220103E-1,-3.9901972E-1,4.0851966E-1,3.7456506E-1,-5.763519E-1,-8.801714E-2,8.1989306E-1,3.0423337E-1,-6.3563275E-1,1.0658147E0,2.6848173E-1,-7.7075386E-1,5.786808E-1,1.0780445E0,-2.5705996E-1],"default_left":[true,true,true,true,true,true,true,true,true,true,false,true,true,true,true,true,true,true,true,false,true,true,false,true,true,true,false,true,true,true,true,true,false,true,true,true,true,false,true,false,false,true,false,true,true,false,false,true,true,true,true,false,false,false,false,false,false,false,false,false,false,false,false,false,false,false,false,false,false,false,false,false,false,false,false,false,false,false,false,false,false],"id":22,"leaf_child_counts":[0,0,0,0,0,0,0,0,0,0,0,0,0,0,0,0,0,0,0,0,0,0,0,0,0,0,0,0,0,0,0,0,0,0,0,0,0,0,0,0,0,0,0,0,0,0,0,0,0,0,0,0,0,0,0,0,0,0,0,0,0,0,0,0,0,0,0,0,0,0,0,0,0,0,0,0,0,0,0,0,0],"left_children":[1,3,5,7,9,11,13,15,17,19,-1,21,23,25,27,29,31,33,35,-1,37,39,-1,41,43,45,-1,47,49,51,53,55,-1,57,59,61,63,-1,65,-1,-1,67,-1,69,71,-1,-1,73,75,77,79,-1,-1,-1,-1,-1,-1,-1,-1,-1,-1,-1,-1,-1,-1,-1,-1,-1,-1,-1,-1,-1,-1,-1,-1,-1,-1,-1,-1,-1,-1],"loss_changes":[2.8973858E0,6.321953E0,7.1721883E0,3.4970863E0,7.130208E-1,7.53034E0,3.8205316E0,3.3191042E0,9.942627E0,2.7753067E-1,0E0,3.793869E-1,2.3627763E0,6.8344474E-1,3.5982862E0,2.522842E0,3.4686613E-1,7.5726986E-1,1.6246524E0,0E0,3.307724E-2,2.0725441E-1,0E0,8.968525E-1,1.1814293E0,1.507473E-1,0E0,5.2917805E0,2.886271E0,2.0900881E0,3.1633372E0,1.823802E-1,0E0,7.093077E-1,6.720153E-1,1.0055532E0,7.104544E-1,0E0,5.007652E-1,0E0,0E0,7.776721E-1,0E0,9.8629206E-1,9.231367E-1,0E0,0E0,7.2030416E0,3.0454655E0,2.9589796E0,4.8598905E0,0E0,0E0,0E0,0E0,0E0,0E0,0E0,0E0,0E0,0E0,0E0,0E0,0E0,0E0,0E0,0E0,0E0,0E0,0E0,0E0,0E0,0E0,0E0,0E0,0E0,0E0,0E0,0E0,0E0,0E0],"parents":[2147483647,0,0,1,1,2,2,3,3,4,4,5,5,6,6,7,7,8,8,9,9,11,11,12,12,13,13,14,14,15,15,16,16,17,17,18,18,20,20,21,21,23,23,24,24,25,25,27,27,28,28,29,29,30,30,31,31,33,33,34,34,35,35,36,36,38,38,41,41,43,43,44,44,47,47,48,48,49,49,50,50],"right_children":[2,4,6,8,10,12,14,16,18,20,-1,22,24,26,28,30,32,34,36,-1,38,40,-1,42,44,46,-1,48,50,52,54,56,-1,58,60,62,64,-1,66,-1,-1,68,-1,70,72,-1,-1,74,76,78,80,-1,-1,-1,-1,-1,-1,-1,-1,-1,-1,-1,-1,-1,-1,-1,-1,-1,-1,-1,-1,-1,-1,-1,-1,-1,-1,-1,-1,-1,-1],"split_conditions":[2.6912344E0,1.0728319E0,2.3012538E0,1.0655098E0,1.5783343E-1,2.7546763E0,4.6264462E0,4.6536538E-1,1.1144269E0,2.9881933E-1,1.2046037E-2,5.941798E3,3.4142688E-2,2.6348405E0,1.4936838E1,1.5442373E-2,9.760445E-1,9.283438E-1,2.0508966E0,-5.6605656E-2,6.4921194E-1,2.1753795E0,6.728971E-2,3.097954E-2,1.8374058E3,2.3519981E-1,5.7331347E-3,1.611964E1,4.6901447E1,2.076475E3,5.449002E-1,1.7268777E-2,-2.996939E-2,8.750528E-1,1.9253485E-2,3.4035347E1,4.48687E3,-2.5753576E-1,1.4189029E0,3.611383E-1,8.5893296E-2,2.8994031E-2,-2.5585678E-1,1.760596E3,4.3870494E-2,-5.1896323E-2,-2.4469987E-1,6.462166E0,1.3721481E1,2.1591957E1,4.7956223E1,7.3668204E-2,-9.795988E-2,1.4737013E-1,-9.431927E-2,-2.3363082E-1,-4.6815254E-2,3.7308246E-1,1.0778167E-1,-4.3773882E-2,1.985571E-1,-2.9034615E-2,-2.1784604E-1,1.0742935E-1,-9.266345E-2,2.3973266E-2,-1.866031E-1,-1.1970592E-1,1.22555904E-1,1.1236952E-1,-1.7290556E-1,-2.6405144E-2,2.4596792E-1,9.1270015E-2,-1.9068983E-1,3.1974444E-1,8.0544524E-2,-2.3122616E-1,1.7360425E-1,3.2341337E-1,-7.7117994E-2],"split_indices":[14,10,10,14,13,6,14,10,6,8,0,0,4,8,11,12,14,6,15,0,9,10,0,4,1,6,0,14,15,1,6,4,0,10,4,16,0,0,10,0,0,12,0,1,12,0,0,10,10,9,11,0,0,0,0,0,0,0,0,0,0,0,0,0,0,0,0,0,0,0,0,0,0,0,0,0,0,0,0,0,0],"sum_hessian":[2.1913213E2,1.0813514E2,1.1099699E2,9.212474E1,1.6010403E1,2.4494347E1,8.650264E1,6.471275E1,2.7411983E1,1.4823138E1,1.1872643E0,1.2375177E1,1.2119169E1,8.057883E0,7.8444756E1,5.506083E1,9.651926E0,1.1558342E1,1.5853642E1,1.64148E0,1.3181658E1,1.1346274E1,1.028903E0,4.895946E0,7.2232227E0,6.760054E0,1.2978293E0,5.368227E1,2.476249E1,3.4715866E1,2.0344963E1,8.2622795E0,1.3896469E0,8.978621E0,2.5797212E0,1.0100839E1,5.7528033E0,9.687023E0,3.4946349E0,1.0339465E1,1.0068097E0,2.847234E0,2.048712E0,2.4729555E0,4.750267E0,1.0554224E0,5.704632E0,3.225283E1,2.1429438E1,1.1647356E1,1.3115133E1,7.4500465E0,2.726582E1,1.3929084E1,6.4158792E0,7.1473007E0,1.1149786E0,6.7676754E0,2.210945E0,1.393364E0,1.1863573E0,4.893498E0,5.207341E0,4.3542967E0,1.3985066E0,1.1662046E0,2.3284302E0,1.7015983E0,1.1456357E0,1.1050636E0,1.3678919E0,1.2517326E0,3.4985344E0,1.9847504E1,1.2405329E1,7.0096054E0,1.4419832E1,1.04996605E1,1.1476948E0,2.5732012E0,1.0541932E1],"tree_param":{"num_deleted":"0","num_feature":"18","num_nodes":"81","size_leaf_vector":"0"}},{"base_weights":[2.35334E-3,-1.4872614E-2,6.4953256E-1,2.1878315E-2,-3.28565E-1,9.070715E-1,1.5314676E-1,-5.650692E-2,3.4436038E-1,2.6568395E-1,-4.85447E-1,-2.969492E-1,5.208036E-1,-3.532185E-4,-7.7211356E-1,1.0387903E0,-5.4922655E-2,5.5257666E-1,-1.6527316E-1,-6.2052584E-1,3.144827E-1,-9.62067E-2,3.3249235E-1,-8.432215E-1,-1.12625495E-1,1.1062049E0,1.2505817E-1,-7.6516145E-1,2.0214011E-1,-1.3768584E-1,-8.080356E-1,5.2840424E-1,-7.246123E-2,-8.74794E-3,-5.17197E-1,7.0085293E-1,-1.08940035E-1,-3.7778005E-1,-9.507543E-1,2.2315772E-1,1.1910564E0,-2.329184E-1,-8.78109E-1,8.6784E-1,-1.4167105E-1,1.6803783E-1,-4.083703E-1,-1.1854704E-1,-9.162033E-1],"default_left":[true,true,true,true,true,false,true,true,true,true,true,false,false,true,true,true,true,false,false,true,true,true,true,true,false,true,false,true,true,true,true,false,false,false,false,false,false,false,false,false,false,false,false,false,false,false,false,false,false],"id":23,"leaf_child_counts":[0,0,0,0,0,0,0,0,0,0,0,0,0,0,0,0,0,0,0,0,0,0,0,0,0,0,0,0,0,0,0,0,0,0,0,0,0,0,0,0,0,0,0,0,0,0,0,0,0],"left_children":[1,3,5,7,9,-1,11,13,15,17,19,-1,-1,21,23,25,27,-1,-1,29,31,33,35,37,-1,39,-1,41,43,45,47,-1,-1,-1,-1,-1,-1,-1,-1,-1,-1,-1,-1,-1,-1,-1,-1,-1,-1],"loss_changes":[2.3283641E0,2.3540742E0,5.533128E-1,4.649389E0,2.1250641E0,0E0,6.5983784E-1,5.9552093E0,1.0026785E1,7.2413564E-1,2.0636988E0,0E0,0E0,4.4482727E0,4.1070127E-1,6.73336E-1,4.4962225E0,0E0,0E0,1.258656E0,3.0001885E-1,3.981087E0,5.1455183E0,1.20274544E-1,0E0,6.441269E-1,0E0,1.8793178E-1,4.3001504E0,5.1862526E-1,6.8888426E-1,0E0,0E0,0E0,0E0,0E0,0E0,0E0,0E0,0E0,0E0,0E0,0E0,0E0,0E0,0E0,0E0,0E0,0E0],"parents":[2147483647,0,0,1,1,2,2,3,3,4,4,6,6,7,7,8,8,9,9,10,10,13,13,14,14,15,15,16,16,19,19,20,20,21,21,22,22,23,23,25,25,27,27,28,28,29,29,30,30],"right_children":[2,4,6,8,10,-1,12,14,16,18,20,-1,-1,22,24,26,28,-1,-1,30,32,34,36,38,-1,40,-1,42,44,46,48,-1,-1,-1,-1,-1,-1,-1,-1,-1,-1,-1,-1,-1,-1,-1,-1,-1,-1],"split_conditions":[1.9462125E-1,7.015753E-2,9.226482E0,9.250608E0,6.6464605E0,2.7212146E-1,1.6379103E1,4.3007164E0,1.0223419E1,6.994493E0,3.2299675E1,-8.908477E-2,1.5624107E-1,3.0048647E0,3.4414885E0,6.8055645E3,2.0393227E1,1.65773E-1,-4.958195E-2,2.258695E1,2.5261903E0,1.0728319E0,2.7523766E0,5.24819E0,-3.378765E-2,1.6482998E3,3.7517454E-2,2.679254E4,2.6798237E1,3.2114124E0,1.9577385E3,1.5852128E-1,-2.173837E-2,-2.624382E-3,-1.5515912E-1,2.1025589E-1,-3.2682013E-2,-1.1333402E-1,-2.852263E-1,6.694732E-2,3.573169E-1,-6.987552E-2,-2.634327E-1,2.6035202E-1,-4.2501315E-2,5.041135E-2,-1.2251109E-1,-3.5564113E-2,-2.74861E-1],"split_indices":[4,4,7,14,6,0,9,10,10,10,6,0,0,14,9,0,14,0,0,16,9,10,6,10,0,1,0,2,10,9,0,0,0,0,0,0,0,0,0,0,0,0,0,0,0,0,0,0,0],"sum_hessian":[2.0698761E2,2.0257275E2,4.4148545E0,1.8216168E2,2.041107E1,2.3620205E0,2.0528343E0,1.4720544E2,3.4956234E1,4.1182265E0,1.6292843E1,1.0094079E0,1.0434264E0,1.374224E2,9.783051E0,1.21768E1,2.2779434E1,2.3029323E0,1.8152941E0,1.4130922E1,2.1619213E0,1.072479E2,3.0174494E1,8.579395E0,1.2036556E0,1.1143961E1,1.0328391E0,5.528416E0,1.7251019E1,4.4378047E0,9.693117E0,1.1568015E0,1.0051198E0,8.9645294E1,1.760261E1,1.6128294E1,1.40462E1,2.457142E0,6.122253E0,1.2951676E0,9.848793E0,1.5038763E0,